{"learner":{"attributes":{"scikit_learn":"{\"_estimator_type\": \"classifier\"}"},"feature_names":[],"feature_types":[],"gradient_booster":{"model":{"cats":{"enc":[],"feature_segments":[],"sorted_idx":[]},"gbtree_model_param":{"num_parallel_tree":"1","num_trees":"50"},"iteration_indptr":[0,1,2,3,4,5,6,7,8,9,10,11,12,13,14,15,16,17,18,19,20,21,22,23,24,25,26,27,28,29,30,31,32,33,34,35,36,37,38,39,40,41,42,43,44,45,46,47,48,49,50],"tree_info":[0,0,0,0,0,0,0,0,0,0,0,0,0,0,0,0,0,0,0,0,0,0,0,0,0,0,0,0,0,0,0,0,0,0,0,0,0,0,0,0,0,0,0,0,0,0,0,0,0,0],"trees":[{"base_weights":[1.8682009E-2,-1.1450878E0,1.267458E0,-1.2131716E0,-8.368205E-2,2.4085632E-1,1.8739542E0,-1.314433E-1,-9.5477395E-2,-5.0938338E-2,7.317073E-2,-4.4392526E-2,6.1911166E-2,1.13648154E-1,2.575327E-1],"categories":[],"categories_nodes":[],"categories_segments":[],"categories_sizes":[],"default_left":[0,0,0,0,0,0,0,0,0,0,0,0,0,0,0],"id":0,"left_children":[1,3,5,7,9,11,13,-1,-1,-1,-1,-1,-1,-1,-1],"loss_changes":[1.7259053E2,4.341301E0,3.521289E1,2.5476837E-1,2.0319166E0,6.082119E0,1.5621521E1,0E0,0E0,0E0,0E0,0E0,0E0,0E0,0E0],"parents":[2147483647,0,0,1,1,2,2,3,3,4,4,5,5,6,6],"right_children":[2,4,6,8,10,12,14,-1,-1,-1,-1,-1,-1,-1,-1],"split_conditions":[4.3068692E-1,3.9778554E-1,5.149576E-1,1.6785076E-1,5.4519683E-1,6.0674196E-1,7.782028E-1,-1.314433E-1,-9.5477395E-2,-5.0938338E-2,7.317073E-2,-4.4392526E-2,6.1911166E-2,1.13648154E-1,2.575327E-1],"split_indices":[2,2,0,2,0,2,2,0,0,0,0,0,0,0,0],"split_type":[0,0,0,0,0,0,0,0,0,0,0,0,0,0,0],"sum_hessian":[1.1676E2,6.0480003E1,5.6280003E1,5.67E1,3.7800002E0,2.142E1,3.486E1,3.7800003E1,1.8900002E1,2.73E0,1.0500001E0,7.5600004E0,1.3860001E1,1.827E1,1.659E1],"tree_param":{"num_deleted":"0","num_feature":"3","num_nodes":"15","size_leaf_vector":"1"}},{"base_weights":[3.8878366E-2,-8.721814E-1,1.4989486E0,-1.1871026E-1,8.227641E-2,-3.591348E-1,1.601849E0,-1.3574737E-2,1.1807797E-1,-7.5443745E-2,2.0920701E-2,1.0180378E-1,1.9946809E-1],"categories":[],"categories_nodes":[],"categories_segments":[],"categories_sizes":[],"default_left":[0,0,0,0,0,0,0,0,0,0,0,0,0],"id":1,"left_children":[1,3,5,-1,7,9,11,-1,-1,-1,-1,-1,-1],"loss_changes":[1.5402501E2,2.1537037E1,9.079788E0,0E0,4.622343E0,8.6573887E-1,7.6771164E0,0E0,0E0,0E0,0E0,0E0,0E0],"parents":[2147483647,0,0,1,1,2,2,4,4,5,5,6,6],"right_children":[2,4,6,-1,8,10,12,-1,-1,-1,-1,-1,-1],"split_conditions":[6.214337E-1,3.9778554E-1,3.2831675E-1,-1.1871026E-1,6.440459E-1,8.157309E-1,7.8166795E-1,-1.3574737E-2,1.1807797E-1,-7.5443745E-2,2.0920701E-2,1.0180378E-1,1.9946809E-1],"split_indices":[2,2,0,0,0,2,2,0,0,0,0,0,0],"split_type":[0,0,0,0,0,0,0,0,0,0,0,0,0],"sum_hessian":[1.13807076E2,7.03269E1,4.3480183E1,5.269617E1,1.7630724E1,2.1509085E0,4.1329273E1,1.5442267E1,2.1884558E0,1.0754542E0,1.0754542E0,1.8068346E1,2.3260925E1],"tree_param":{"num_deleted":"0","num_feature":"3","num_nodes":"13","size_leaf_vector":"1"}},{"base_weights":[2.4568923E-3,-1.2810212E0,2.5079746E0,-1.3504742E-1,-4.4397098E-1,1.4347678E-1,2.679427E-1,2.160916E-2,-6.728044E-2],"categories":[],"categories_nodes":[],"categories_segments":[],"categories_sizes":[],"default_left":[0,0,0,0,0,0,0,0,0],"id":2,"left_children":[1,3,5,-1,7,-1,-1,-1,-1],"loss_changes":[3.7811624E2,3.9206696E0,3.484314E0,0E0,1.2702075E0,0E0,0E0,0E0,0E0],"parents":[2147483647,0,0,1,1,2,2,4,4],"right_children":[2,4,6,-1,8,-1,-1,-1,-1],"split_conditions":[6.249842E-1,2.0670785E-1,8.876896E-1,-1.3504742E-1,2.465891E-1,1.4347678E-1,2.679427E-1,2.160916E-2,-6.728044E-2],"split_indices":[1,1,1,0,1,0,0,0,0],"split_type":[0,0,0,0,0,0,0,0,0],"sum_hessian":[1.15582535E2,7.675347E1,3.882906E1,7.030652E1,6.446952E0,6.639208E0,3.2189854E1,1.6740091E0,4.772943E0],"tree_param":{"num_deleted":"0","num_feature":"3","num_nodes":"9","size_leaf_vector":"1"}},{"base_weights":[3.2129258E-2,-1.2054732E0,2.1758297E-1,-1.2996064E-1,-3.8512203E-1,-6.526532E-2,4.5351453E-2],"categories":[],"categories_nodes":[],"categories_segments":[],"categories_sizes":[],"default_left":[0,0,0,0,0,0,0],"id":3,"left_children":[1,3,-1,-1,5,-1,-1],"loss_changes":[3.1252136E2,5.2678757E0,0E0,0E0,2.3399835E0,0E0,0E0],"parents":[2147483647,0,0,1,1,4,4],"right_children":[2,4,-1,-1,6,-1,-1],"split_conditions":[6.4966446E-1,2.0670785E-1,2.1758297E-1,-1.2996064E-1,7.1693695E-1,-6.526532E-2,4.5351453E-2],"split_indices":[1,1,0,0,2,0,0],"split_type":[0,0,0,0,0,0,0],"sum_hessian":[1.15808426E2,7.3698456E1,4.210997E1,6.558817E1,8.110282E0,6.3169103E0,1.7933716E0],"tree_param":{"num_deleted":"0","num_feature":"3","num_nodes":"7","size_leaf_vector":"1"}},{"base_weights":[-2.0196E-2,-1.1901499E0,1.897952E0,-1.2636939E-1,-3.9180437E-1,8.2335794E-1,2.0029698E-1,-5.8814425E-2,1.278356E-2,1.4376575E-1,-3.492625E-2],"categories":[],"categories_nodes":[],"categories_segments":[],"categories_sizes":[],"default_left":[0,0,0,0,0,0,0,0,0,0,0],"id":4,"left_children":[1,3,5,-1,7,9,-1,-1,-1,-1,-1],"loss_changes":[2.5208926E2,3.6009293E0,3.1540222E0,0E0,8.234372E-1,4.4547544E0,0E0,0E0,0E0,0E0,0E0],"parents":[2147483647,0,0,1,1,2,2,4,4,5,5],"right_children":[2,4,6,-1,8,10,-1,-1,-1,-1,-1],"split_conditions":[6.249842E-1,2.0670785E-1,8.399762E-1,-1.2636939E-1,6.266855E-1,5.0916344E-1,2.0029698E-1,-5.8814425E-2,1.278356E-2,1.4376575E-1,-3.492625E-2],"split_indices":[1,1,1,0,0,0,0,0,0,0,0],"split_type":[0,0,0,0,0,0,0,0,0,0,0],"sum_hessian":[1.10325455E2,6.876345E1,4.1562E1,6.2429527E1,6.333924E0,4.4871783E0,3.707482E1,4.501322E0,1.8326021E0,2.7962754E0,1.6909032E0],"tree_param":{"num_deleted":"0","num_feature":"3","num_nodes":"11","size_leaf_vector":"1"}},{"base_weights":[8.559715E-3,-1.1482853E0,1.6948469E0,-1.2245696E-1,-3.541615E-1,4.1166556E-1,1.7576745E-1,-7.261384E-2,5.7420745E-3,7.381197E-2,-4.5736325E-3],"categories":[],"categories_nodes":[],"categories_segments":[],"categories_sizes":[],"default_left":[0,0,0,0,0,0,0,0,0,0,0],"id":5,"left_children":[1,3,5,-1,7,9,-1,-1,-1,-1,-1],"loss_changes":[2.1333942E2,3.495926E0,2.8636856E0,0E0,1.1274776E0,5.3887904E-1,0E0,0E0,0E0,0E0,0E0],"parents":[2147483647,0,0,1,1,2,2,4,4,5,5],"right_children":[2,4,6,-1,8,10,-1,-1,-1,-1,-1],"split_conditions":[4.5323727E-1,2.0670785E-1,6.663023E-1,-1.2245696E-1,5.1158404E-1,4.916625E-1,1.7576745E-1,-7.261384E-2,5.7420745E-3,7.381197E-2,-4.5736325E-3],"split_indices":[1,1,1,0,0,0,0,0,0,0,0],"split_type":[0,0,0,0,0,0,0,0,0,0,0],"sum_hessian":[1.0736384E2,6.3867683E1,4.349616E1,5.777566E1,6.0920224E0,2.382787E0,4.111337E1,2.7985277E0,3.2934945E0,1.0322986E0,1.3504884E0],"tree_param":{"num_deleted":"0","num_feature":"3","num_nodes":"11","size_leaf_vector":"1"}},{"base_weights":[-5.8639573E-4,-1.1289799E0,1.5393858E0,-1.19218506E-1,-5.170719E-1,8.5013837E-1,1.7051022E-1,7.099458E-3,-6.589716E-2,1.3420239E-1,2.653565E-2],"categories":[],"categories_nodes":[],"categories_segments":[],"categories_sizes":[],"default_left":[0,0,0,0,0,0,0,0,0,0,0],"id":6,"left_children":[1,3,5,-1,7,9,-1,-1,-1,-1,-1],"loss_changes":[1.8050238E2,1.7020874E0,3.5677032E0,0E0,6.6247916E-1,2.6666284E0,0E0,0E0,0E0,0E0,0E0],"parents":[2147483647,0,0,1,1,2,2,4,4,5,5],"right_children":[2,4,6,-1,8,10,-1,-1,-1,-1,-1],"split_conditions":[5.5212027E-1,2.0670785E-1,8.876896E-1,-1.19218506E-1,2.3228727E-1,5.0916344E-1,1.7051022E-1,7.099458E-3,-6.589716E-2,1.3420239E-1,2.653565E-2],"split_indices":[1,1,1,0,1,0,0,0,0,0,0],"split_type":[0,0,0,0,0,0,0,0,0,0,0],"sum_hessian":[1.0187449E2,5.894802E1,4.292647E1,5.2569687E1,6.378335E0,9.508561E0,3.341791E1,1.3370335E0,5.0413017E0,4.461166E0,5.0473948E0],"tree_param":{"num_deleted":"0","num_feature":"3","num_nodes":"11","size_leaf_vector":"1"}},{"base_weights":[-3.0733803E-2,-1.086563E0,1.5171163E0,-1.1638399E-1,-4.598282E-1,2.7305221E-2,1.5578576E0,3.6935657E-3,-6.350341E-2,5.170795E-2,1.5851663E-1],"categories":[],"categories_nodes":[],"categories_segments":[],"categories_sizes":[],"default_left":[0,0,0,0,0,0,0,0,0,0,0],"id":7,"left_children":[1,3,5,-1,7,-1,9,-1,-1,-1,-1],"loss_changes":[1.5830946E2,2.25309E0,1.5660248E0,0E0,7.1734405E-1,0E0,2.5561523E-1,0E0,0E0,0E0,0E0],"parents":[2147483647,0,0,1,1,2,2,4,4,6,6],"right_children":[2,4,6,-1,8,-1,10,-1,-1,-1,-1],"split_conditions":[6.249842E-1,2.0670785E-1,3.5203832E-1,-1.1638399E-1,2.465891E-1,2.7305221E-2,6.947905E-1,3.6935657E-3,-6.350341E-2,5.170795E-2,1.5851663E-1],"split_indices":[1,1,0,0,1,0,1,0,0,0,0],"split_type":[0,0,0,0,0,0,0,0,0,0,0],"sum_hessian":[9.4860214E1,5.657021E1,3.8290005E1,4.9597767E1,6.9724407E0,1.4584138E0,3.6831593E1,2.023726E0,4.9487147E0,1.4513907E0,3.53802E1],"tree_param":{"num_deleted":"0","num_feature":"3","num_nodes":"11","size_leaf_vector":"1"}},{"base_weights":[-1.3235131E-2,-1.0514191E0,1.3403884E0,-1.1359358E-1,-4.5507807E-1,5.512861E-1,1.4793393E-1,-6.3976526E-2,1.4280843E-2,9.003546E-2,2.1191046E-2],"categories":[],"categories_nodes":[],"categories_segments":[],"categories_sizes":[],"default_left":[0,0,0,0,0,0,0,0,0,0,0],"id":8,"left_children":[1,3,5,-1,7,9,-1,-1,-1,-1,-1],"loss_changes":[1.3046567E2,2.1307983E0,3.6033554E0,0E0,9.956665E-1,7.1286416E-1,0E0,0E0,0E0,0E0,0E0],"parents":[2147483647,0,0,1,1,2,2,4,4,5,5],"right_children":[2,4,6,-1,8,10,-1,-1,-1,-1,-1],"split_conditions":[6.249842E-1,2.0670785E-1,8.4894025E-1,-1.1359358E-1,7.181711E-1,6.947905E-1,1.4793393E-1,-6.3976526E-2,1.4280843E-2,9.003546E-2,2.1191046E-2],"split_indices":[1,1,1,0,2,1,0,0,0,0,0],"split_type":[0,0,0,0,0,0,0,0,0,0,0],"sum_hessian":[9.083478E1,5.153354E1,3.9301243E1,4.434402E1,7.1895165E0,6.628045E0,3.26732E1,5.439278E0,1.7502382E0,2.4525135E0,4.1755314E0],"tree_param":{"num_deleted":"0","num_feature":"3","num_nodes":"11","size_leaf_vector":"1"}},{"base_weights":[-1.3234014E-2,-1.058278E0,1.2277814E0,-1.1152957E-1,-5.0762546E-1,5.893171E-1,1.4147383E-1,5.4082805E-3,-7.7951275E-2,2.6594082E-2,9.471099E-2],"categories":[],"categories_nodes":[],"categories_segments":[],"categories_sizes":[],"default_left":[0,0,0,0,0,0,0,0,0,0,0],"id":9,"left_children":[1,3,5,-1,7,9,-1,-1,-1,-1,-1],"loss_changes":[1.14117546E2,9.333801E-1,3.968235E0,0E0,1.0068576E0,1.0006902E0,0E0,0E0,0E0,0E0,0E0],"parents":[2147483647,0,0,1,1,2,2,4,4,5,5],"right_children":[2,4,6,-1,8,10,-1,-1,-1,-1,-1],"split_conditions":[4.5323727E-1,2.0670785E-1,8.876896E-1,-1.1152957E-1,2.465891E-1,7.201065E-1,1.4147383E-1,5.4082805E-3,-7.7951275E-2,2.6594082E-2,9.471099E-2],"split_indices":[1,1,1,0,1,2,0,0,0,0,0],"split_type":[0,0,0,0,0,0,0,0,0,0,0],"sum_hessian":[8.598963E1,4.6760464E1,3.9229164E1,4.1443733E1,5.3167305E0,9.825813E0,2.9403353E1,1.9953991E0,3.3213313E0,6.0768156E0,3.7489974E0],"tree_param":{"num_deleted":"0","num_feature":"3","num_nodes":"11","size_leaf_vector":"1"}},{"base_weights":[4.241155E-2,-1.0123267E0,1.227827E0,-1.0956043E-1,-2.9115143E-1,5.3537273E-1,1.3601328E-1,1.723782E-2,-5.2265763E-2,1.02759086E-1,-2.1259254E-2],"categories":[],"categories_nodes":[],"categories_segments":[],"categories_sizes":[],"default_left":[0,0,0,0,0,0,0,0,0,0,0],"id":10,"left_children":[1,3,5,-1,7,9,-1,-1,-1,-1,-1],"loss_changes":[1.0779508E2,2.4223099E0,2.989296E0,0E0,7.4329644E-1,3.2220502E0,0E0,0E0,0E0,0E0,0E0],"parents":[2147483647,0,0,1,1,2,2,4,4,5,5],"right_children":[2,4,6,-1,8,10,-1,-1,-1,-1,-1],"split_conditions":[4.5323727E-1,2.0670785E-1,8.399762E-1,-1.0956043E-1,2.465891E-1,5.0916344E-1,1.3601328E-1,1.723782E-2,-5.2265763E-2,1.02759086E-1,-2.1259254E-2],"split_indices":[1,1,1,0,1,0,0,0,0,0,0],"split_type":[0,0,0,0,0,0,0,0,0,0,0],"sum_hessian":[8.422104E1,4.4644264E1,3.957678E1,3.955721E1,5.0870543E0,7.1583433E0,3.2418434E1,1.7794946E0,3.3075595E0,4.0917873E0,3.0665562E0],"tree_param":{"num_deleted":"0","num_feature":"3","num_nodes":"11","size_leaf_vector":"1"}},{"base_weights":[-7.75449E-2,-8.279344E-1,3.8695765E-1,-9.641195E-1,-5.691528E-1,5.6717493E-2,7.007939E-1,-1.0505134E-1,-5.489735E-2,-8.287867E-2,-2.8135702E-2,1.6935637E-2,-5.9174597E-2,-3.3500627E-2,7.742783E-2],"categories":[],"categories_nodes":[],"categories_segments":[],"categories_sizes":[],"default_left":[0,0,0,0,0,0,0,0,0,0,0,0,0,0,0],"id":11,"left_children":[1,3,5,7,9,11,13,-1,-1,-1,-1,-1,-1,-1,-1],"loss_changes":[2.5930195E1,4.5251846E-1,4.7343035E0,3.9240837E-2,6.8118143E-1,1.8191223E0,2.0503855E0,0E0,0E0,0E0,0E0,0E0,0E0,0E0,0E0],"parents":[2147483647,0,0,1,1,2,2,3,3,4,4,5,5,6,6],"right_children":[2,4,6,8,10,12,14,-1,-1,-1,-1,-1,-1,-1,-1],"split_conditions":[3.9778554E-1,1.1421414E-1,7.201065E-1,5.356653E-1,4.3023825E-1,6.94149E-1,3.4864223E-1,-1.0505134E-1,-5.489735E-2,-8.287867E-2,-2.8135702E-2,1.6935637E-2,-5.9174597E-2,-3.3500627E-2,7.742783E-2],"split_indices":[2,2,2,0,0,2,0,0,0,0,0,0,0,0,0],"split_type":[0,0,0,0,0,0,0,0,0,0,0,0,0,0,0],"sum_hessian":[7.247366E1,2.7410475E1,4.5063187E1,1.6173487E1,1.1236988E1,2.2533064E1,2.253012E1,1.2120653E1,4.052834E0,4.9192924E0,6.317696E0,1.982779E1,2.7052755E0,1.2567472E0,2.1273375E1],"tree_param":{"num_deleted":"0","num_feature":"3","num_nodes":"15","size_leaf_vector":"1"}},{"base_weights":[-3.4598876E-2,-1.0254258E0,1.1097343E0,-1.09403364E-1,-6.460143E-1,4.8746705E-1,1.2972926E-1,-3.4496944E-2,-8.1151076E-2,1.9778555E-2,1.1965672E-1],"categories":[],"categories_nodes":[],"categories_segments":[],"categories_sizes":[],"default_left":[0,0,0,0,0,0,0,0,0,0,0],"id":12,"left_children":[1,3,5,-1,7,9,-1,-1,-1,-1,-1],"loss_changes":[8.641065E1,3.5598755E-1,3.4968948E0,0E0,1.5320396E-1,1.7755945E0,0E0,0E0,0E0,0E0,0E0],"parents":[2147483647,0,0,1,1,2,2,4,4,5,5],"right_children":[2,4,6,-1,8,10,-1,-1,-1,-1,-1],"split_conditions":[4.5323727E-1,1.0022105E-1,8.876896E-1,-1.09403364E-1,5.136822E-1,6.1085707E-1,1.2972926E-1,-3.4496944E-2,-8.1151076E-2,1.9778555E-2,1.1965672E-1],"split_indices":[1,1,1,0,0,0,0,0,0,0,0],"split_type":[0,0,0,0,0,0,0,0,0,0,0],"sum_hessian":[7.4207245E1,3.982686E1,3.4380386E1,3.2132874E1,7.6939845E0,8.796149E0,2.5584238E1,3.8234408E0,3.8705437E0,7.1529512E0,1.643198E0],"tree_param":{"num_deleted":"0","num_feature":"3","num_nodes":"11","size_leaf_vector":"1"}},{"base_weights":[-1.0905116E-1,-1.0180246E0,1.0440683E0,-1.03785135E-1,-1.5436314E-2,3.5221562E-1,1.2451842E-1,7.6548904E-2,-4.7910932E-2],"categories":[],"categories_nodes":[],"categories_segments":[],"categories_sizes":[],"default_left":[0,0,0,0,0,0,0,0,0],"id":13,"left_children":[1,3,5,-1,-1,7,-1,-1,-1],"loss_changes":[7.235778E1,4.9978256E-1,3.8020363E0,0E0,0E0,3.204064E0,0E0,0E0,0E0],"parents":[2147483647,0,0,1,1,2,2,5,5],"right_children":[2,4,6,-1,-1,8,-1,-1,-1],"split_conditions":[6.249842E-1,6.9351417E-1,8.876896E-1,-1.03785135E-1,-1.5436314E-2,5.556338E-1,1.2451842E-1,7.6548904E-2,-4.7910932E-2],"split_indices":[1,0,1,0,0,0,0,0,0],"split_type":[0,0,0,0,0,0,0,0,0],"sum_hessian":[6.701942E1,3.754268E1,2.9476738E1,3.6503006E1,1.039672E0,7.2584524E0,2.2218287E1,4.901154E0,2.3572981E0],"tree_param":{"num_deleted":"0","num_feature":"3","num_nodes":"9","size_leaf_vector":"1"}},{"base_weights":[2.819253E-2,-8.887598E-1,1.1529954E-1,-1.03958845E-1,-3.5435952E-2,-3.616926E-2,3.0985896E-2],"categories":[],"categories_nodes":[],"categories_segments":[],"categories_sizes":[],"default_left":[0,0,0,0,0,0,0],"id":14,"left_children":[1,3,-1,-1,5,-1,-1],"loss_changes":[6.7377464E1,4.59733E0,0E0,0E0,8.379707E-1,0E0,0E0],"parents":[2147483647,0,0,1,1,4,4],"right_children":[2,4,-1,-1,6,-1,-1],"split_conditions":[6.249842E-1,2.0670785E-1,1.1529954E-1,-1.03958845E-1,6.315063E-1,-3.616926E-2,3.0985896E-2],"split_indices":[1,1,0,0,2,0,0],"split_type":[0,0,0,0,0,0,0],"sum_hessian":[6.333327E1,3.5005905E1,2.8327366E1,2.956235E1,5.443554E0,2.7745206E0,2.6690333E0],"tree_param":{"num_deleted":"0","num_feature":"3","num_nodes":"7","size_leaf_vector":"1"}},{"base_weights":[1.7220296E-2,-7.766576E-1,4.4114813E-1,-9.62978E-2,-2.8548893E-1,1.7398608E-1,6.731272E-1,-7.230152E-2,1.09704E-3,-1.2807013E-3,7.022491E-2,5.5233534E-2,1.0651646E-1],"categories":[],"categories_nodes":[],"categories_segments":[],"categories_sizes":[],"default_left":[0,0,0,0,0,0,0,0,0,0,0,0,0],"id":15,"left_children":[1,3,5,-1,7,9,11,-1,-1,-1,-1,-1,-1],"loss_changes":[2.1059816E1,1.7192898E0,2.4094605E0,0E0,9.696314E-1,2.0116498E0,4.2846298E-1,0E0,0E0,0E0,0E0,0E0,0E0],"parents":[2147483647,0,0,1,1,2,2,4,4,5,5,6,6],"right_children":[2,4,6,-1,8,10,12,-1,-1,-1,-1,-1,-1],"split_conditions":[3.9778554E-1,1.8476145E-1,7.201065E-1,-9.62978E-2,4.2376542E-1,6.3310564E-1,6.8973345E-1,-7.230152E-2,1.09704E-3,-1.2807013E-3,7.022491E-2,5.5233534E-2,1.0651646E-1],"split_indices":[2,2,2,0,0,0,0,0,0,0,0,0,0],"split_type":[0,0,0,0,0,0,0,0,0,0,0,0,0],"sum_hessian":[6.0558117E1,2.0791119E1,3.9767E1,1.4376817E1,6.4143014E0,1.9295296E1,2.0471704E1,2.0096085E0,4.4046926E0,1.4975675E1,4.3196216E0,1.7491293E1,2.9804118E0],"tree_param":{"num_deleted":"0","num_feature":"3","num_nodes":"13","size_leaf_vector":"1"}},{"base_weights":[4.432616E-2,-8.210617E-1,1.059136E0,-1.0176243E-1,6.4904927E-3,3.9627534E-1,1.1895603E-1,-3.479452E-2,6.89228E-2,5.782171E-2,-2.3876226E-2],"categories":[],"categories_nodes":[],"categories_segments":[],"categories_sizes":[],"default_left":[0,0,0,0,0,0,0,0,0,0,0],"id":16,"left_children":[1,3,5,-1,7,9,-1,-1,-1,-1,-1],"loss_changes":[5.2358955E1,5.2457657E0,1.899334E0,0E0,1.9761894E0,8.3222175E-1,0E0,0E0,0E0,0E0,0E0],"parents":[2147483647,0,0,1,1,2,2,4,4,5,5],"right_children":[2,4,6,-1,8,10,-1,-1,-1,-1,-1],"split_conditions":[6.663023E-1,2.2554076E-1,8.4894025E-1,-1.0176243E-1,7.1693695E-1,8.0204654E-1,1.1895603E-1,-3.479452E-2,6.89228E-2,5.782171E-2,-2.3876226E-2],"split_indices":[1,1,1,0,2,2,0,0,0,0,0],"split_type":[0,0,0,0,0,0,0,0,0,0,0],"sum_hessian":[5.763026E1,3.1208158E1,2.6422104E1,2.5032652E1,6.1755066E0,5.008016E0,2.1414087E1,4.387929E0,1.7875776E0,3.9622777E0,1.0457385E0],"tree_param":{"num_deleted":"0","num_feature":"3","num_nodes":"11","size_leaf_vector":"1"}},{"base_weights":[-8.037402E-2,-4.2999032E-1,5.886141E-1,-8.5652494E-1,-1.9506079E-1,3.3117753E-1,7.7452466E-2,-9.79346E-2,-4.381274E-2,-1.14984205E-2,-6.864763E-2,4.5484506E-2,-3.307423E-2],"categories":[],"categories_nodes":[],"categories_segments":[],"categories_sizes":[],"default_left":[0,0,0,0,0,0,0,0,0,0,0,0,0],"id":17,"left_children":[1,3,5,7,9,11,-1,-1,-1,-1,-1,-1,-1],"loss_changes":[1.3281259E1,3.556706E0,6.787238E-1,2.340126E-1,9.149842E-1,9.6419835E-1,0E0,0E0,0E0,0E0,0E0,0E0,0E0],"parents":[2147483647,0,0,1,1,2,2,3,3,4,4,5,5],"right_children":[2,4,6,8,10,12,-1,-1,-1,-1,-1,-1,-1],"split_conditions":[7.201065E-1,1.6785076E-1,5.7009894E-1,5.356653E-1,6.9124526E-1,5.556338E-1,7.7452466E-2,-9.79346E-2,-4.381274E-2,-1.14984205E-2,-6.864763E-2,4.5484506E-2,-3.307423E-2],"split_indices":[2,2,0,0,2,0,0,0,0,0,0,0,0],"split_type":[0,0,0,0,0,0,0,0,0,0,0,0,0],"sum_hessian":[5.4702282E1,3.616141E1,1.8540869E1,1.1903575E1,2.4257837E1,8.941146E0,9.599724E0,8.16579E0,3.737785E0,2.1919947E1,2.3378892E0,7.7972193E0,1.143927E0],"tree_param":{"num_deleted":"0","num_feature":"3","num_nodes":"13","size_leaf_vector":"1"}},{"base_weights":[1.3880961E-2,-7.810509E-1,9.585805E-1,-9.9877787E-1,-5.841218E-2,3.454084E-1,1.1498721E-1,-1.0349275E-1,-4.1184966E-2,-2.5121838E-2,3.5647288E-2,9.291568E-2,-3.217124E-2],"categories":[],"categories_nodes":[],"categories_segments":[],"categories_sizes":[],"default_left":[0,0,0,0,0,0,0,0,0,0,0,0,0],"id":18,"left_children":[1,3,5,7,9,11,-1,-1,-1,-1,-1,-1,-1],"loss_changes":[4.3167866E1,4.8545895E0,2.6830235E0,8.1567764E-2,7.528381E-1,3.2873166E0,0E0,0E0,0E0,0E0,0E0,0E0,0E0],"parents":[2147483647,0,0,1,1,2,2,3,3,4,4,5,5],"right_children":[2,4,6,8,10,12,-1,-1,-1,-1,-1,-1,-1],"split_conditions":[6.663023E-1,2.0670785E-1,8.876896E-1,1.0022105E-1,6.266855E-1,5.556338E-1,1.1498721E-1,-1.0349275E-1,-4.1184966E-2,-2.5121838E-2,3.5647288E-2,9.291568E-2,-3.217124E-2],"split_indices":[1,1,1,1,0,0,0,0,0,0,0,0,0],"split_type":[0,0,0,0,0,0,0,0,0,0,0,0,0],"sum_hessian":[5.5485695E1,3.0225346E1,2.5260351E1,2.2933489E1,7.291856E0,6.6737547E0,1.8586597E1,2.088393E1,2.0495596E0,5.2476463E0,2.0442097E0,3.3498025E0,3.323952E0],"tree_param":{"num_deleted":"0","num_feature":"3","num_nodes":"13","size_leaf_vector":"1"}},{"base_weights":[5.369241E-2,-7.707658E-1,9.780969E-1,-9.793226E-2,-6.1929036E-2,1.941989E-1,1.11700706E-1,-3.443494E-2,5.3430613E-2,1.03276126E-1,-6.0462754E-2],"categories":[],"categories_nodes":[],"categories_segments":[],"categories_sizes":[],"default_left":[0,0,0,0,0,0,0,0,0,0,0],"id":19,"left_children":[1,3,5,-1,7,9,-1,-1,-1,-1,-1],"loss_changes":[3.9607235E1,4.005623E0,2.4480743E0,0E0,1.4166946E0,3.903088E0,0E0,0E0,0E0,0E0,0E0],"parents":[2147483647,0,0,1,1,2,2,4,4,5,5],"right_children":[2,4,6,-1,8,10,-1,-1,-1,-1,-1],"split_conditions":[6.249842E-1,2.0670785E-1,7.8882265E-1,-9.793226E-2,6.266855E-1,4.3663767E-1,1.11700706E-1,-3.443494E-2,5.3430613E-2,1.03276126E-1,-6.0462754E-2],"split_indices":[1,1,1,0,0,0,0,0,0,0,0],"split_type":[0,0,0,0,0,0,0,0,0,0,0],"sum_hessian":[4.9979763E1,2.6505888E1,2.3473877E1,2.0185297E1,6.32059E0,3.8944912E0,1.9579386E1,4.575677E0,1.7449135E0,1.7571197E0,2.1373715E0],"tree_param":{"num_deleted":"0","num_feature":"3","num_nodes":"11","size_leaf_vector":"1"}},{"base_weights":[-7.132676E-2,-8.53588E-2,1.7969523E-1,-8.681491E-2,2.424662E-1,3.4137242E-3,4.9860597E-2],"categories":[],"categories_nodes":[],"categories_segments":[],"categories_sizes":[],"default_left":[0,0,0,0,0,0,0],"id":20,"left_children":[1,-1,3,-1,5,-1,-1],"loss_changes":[9.840785E0,0E0,2.7214165E0,0E0,1.9466176E0,0E0,0E0],"parents":[2147483647,0,0,2,2,4,4],"right_children":[2,-1,4,-1,6,-1,-1],"split_conditions":[2.6388964E-1,-8.53588E-2,3.2831675E-1,-8.681491E-2,7.201065E-1,3.4137242E-3,4.9860597E-2],"split_indices":[2,0,0,0,2,0,0],"split_type":[0,0,0,0,0,0,0],"sum_hessian":[4.833369E1,1.1158852E1,3.717484E1,1.3759242E0,3.5798916E1,2.0366932E1,1.5431983E1],"tree_param":{"num_deleted":"0","num_feature":"3","num_nodes":"7","size_leaf_vector":"1"}},{"base_weights":[-1.651507E-2,-7.875066E-2,1.9523163E-1,-2.9112175E-2,4.7662914E-1,-4.8481356E-2,6.306232E-3,1.0556496E-2,5.6497175E-2],"categories":[],"categories_nodes":[],"categories_segments":[],"categories_sizes":[],"default_left":[0,0,0,0,0,0,0,0,0],"id":21,"left_children":[1,-1,3,5,7,-1,-1,-1,-1],"loss_changes":[8.076886E0,0E0,2.4681468E0,9.787562E-1,5.075638E-1,0E0,0E0,0E0,0E0],"parents":[2147483647,0,0,2,2,3,3,4,4],"right_children":[2,-1,4,6,8,-1,-1,-1,-1],"split_conditions":[1.8476145E-1,-7.875066E-2,7.201065E-1,3.984081E-1,4.5066237E-1,-4.8481356E-2,6.306232E-3,1.0556496E-2,5.6497175E-2],"split_indices":[2,0,2,0,0,0,0,0,0],"split_type":[0,0,0,0,0,0,0,0,0],"sum_hessian":[4.753232E1,9.655726E0,3.787659E1,2.1573605E1,1.6302986E1,2.9128807E0,1.8660725E1,3.5571003E0,1.2745886E1],"tree_param":{"num_deleted":"0","num_feature":"3","num_nodes":"9","size_leaf_vector":"1"}},{"base_weights":[2.3519835E-3,-5.872571E-1,3.3815306E-1,-7.7952135E-1,-2.3071693E-1,1.9174321E-1,6.5739894E-1,-9.172245E-2,-4.787568E-2,7.6598204E-3,-7.4245125E-2,7.072723E-3,7.291732E-2,1.06163576E-1,3.36423E-2],"categories":[],"categories_nodes":[],"categories_segments":[],"categories_sizes":[],"default_left":[0,0,0,0,0,0,0,0,0,0,0,0,0,0,0],"id":22,"left_children":[1,3,5,7,9,11,13,-1,-1,-1,-1,-1,-1,-1,-1],"loss_changes":[9.376529E0,9.9826527E-1,1.2840726E0,5.8870316E-3,1.2271166E0,1.3854456E0,8.201802E-1,0E0,0E0,0E0,0E0,0E0,0E0,0E0,0E0],"parents":[2147483647,0,0,1,1,2,2,3,3,4,4,5,5,6,6],"right_children":[2,4,6,8,10,12,14,-1,-1,-1,-1,-1,-1,-1,-1],"split_conditions":[4.3068692E-1,5.107401E-1,6.3310564E-1,1.6785076E-1,6.030184E-1,8.8210106E-1,6.644924E-1,-9.172245E-2,-4.787568E-2,7.6598204E-3,-7.4245125E-2,7.072723E-3,7.291732E-2,1.06163576E-1,3.36423E-2],"split_indices":[2,0,0,2,0,2,0,0,0,0,0,0,0,0,0],"split_type":[0,0,0,0,0,0,0,0,0,0,0,0,0,0,0],"sum_hessian":[4.5355286E1,1.6186226E1,2.916906E1,9.744926E0,6.441299E0,2.1095179E1,8.07388E0,5.2785373E0,4.4663887E0,4.5557323E0,1.885567E0,1.8141714E1,2.9534645E0,2.5521638E0,5.521716E0],"tree_param":{"num_deleted":"0","num_feature":"3","num_nodes":"15","size_leaf_vector":"1"}},{"base_weights":[2.933643E-2,-8.617175E-1,9.2731446E-1,-1.0192982E-1,-1.416746E-1,5.076984E-1,1.0943253E-1,-6.59725E-2,1.3826178E-2,1.1531382E-1,-1.6019313E-2],"categories":[],"categories_nodes":[],"categories_segments":[],"categories_sizes":[],"default_left":[0,0,0,0,0,0,0,0,0,0,0],"id":23,"left_children":[1,3,5,-1,7,9,-1,-1,-1,-1,-1],"loss_changes":[3.8069057E1,2.5671635E0,1.1039867E0,0E0,8.8192695E-1,3.8952155E0,0E0,0E0,0E0,0E0,0E0],"parents":[2147483647,0,0,1,1,2,2,4,4,5,5],"right_children":[2,4,6,-1,8,10,-1,-1,-1,-1,-1],"split_conditions":[4.5323727E-1,2.0670785E-1,8.876896E-1,-1.0192982E-1,4.5066237E-1,5.0916344E-1,1.0943253E-1,-6.59725E-2,1.3826178E-2,1.1531382E-1,-1.6019313E-2],"split_indices":[1,1,1,0,0,0,0,0,0,0,0],"split_type":[0,0,0,0,0,0,0,0,0,0,0],"sum_hessian":[4.5578915E1,2.2897928E1,2.2680988E1,1.8445536E1,4.452392E0,7.607355E0,1.5073633E1,1.0859804E0,3.366412E0,3.4992244E0,4.1081305E0],"tree_param":{"num_deleted":"0","num_feature":"3","num_nodes":"11","size_leaf_vector":"1"}},{"base_weights":[-5.562622E-2,-8.4995604E-1,7.34241E-1,-1.0062715E-1,-1.747013E-1,6.26036E-2,1.0244969E0,5.1633727E-2,-5.71171E-2,3.867094E-2,-1.7518027E-2,3.4134768E-2,1.0651129E-1],"categories":[],"categories_nodes":[],"categories_segments":[],"categories_sizes":[],"default_left":[0,0,0,0,0,0,0,0,0,0,0,0,0],"id":24,"left_children":[1,3,5,-1,7,9,11,-1,-1,-1,-1,-1,-1],"loss_changes":[2.7777517E1,2.1507597E0,4.2708178E0,0E0,1.7616181E0,6.669475E-1,6.5431595E-2,0E0,0E0,0E0,0E0,0E0,0E0],"parents":[2147483647,0,0,1,1,2,2,4,4,5,5,6,6],"right_children":[2,4,6,-1,8,10,12,-1,-1,-1,-1,-1,-1],"split_conditions":[4.5323727E-1,2.0670785E-1,8.4894025E-1,-1.0062715E-1,4.583704E-1,5.474683E-1,8.876896E-1,5.1633727E-2,-5.71171E-2,3.867094E-2,-1.7518027E-2,3.4134768E-2,1.0651129E-1],"split_indices":[1,1,1,0,2,2,1,0,0,0,0,0,0],"split_type":[0,0,0,0,0,0,0,0,0,0,0,0,0],"sum_hessian":[4.2278275E1,2.104166E1,2.1236616E1,1.6688265E1,4.353396E0,6.7750874E0,1.4461528E1,1.4768827E0,2.8765135E0,2.6020784E0,4.1730094E0,1.3392916E0,1.3122236E1],"tree_param":{"num_deleted":"0","num_feature":"3","num_nodes":"13","size_leaf_vector":"1"}},{"base_weights":[-2.8661393E-2,-7.127218E-1,1.7924434E-1,-8.092439E-1,-3.59407E-1,-1.3906274E-2,6.669903E-1,-8.997844E-2,-2.457023E-2,1.3169261E-2,-5.7988245E-2,-5.475051E-2,6.350422E-3,9.237911E-2,4.0802028E-2],"categories":[],"categories_nodes":[],"categories_segments":[],"categories_sizes":[],"default_left":[0,0,0,0,0,0,0,0,0,0,0,0,0,0,0],"id":25,"left_children":[1,3,5,7,9,11,13,-1,-1,-1,-1,-1,-1,-1,-1],"loss_changes":[6.030483E0,4.5917988E-2,3.0832171E0,1.3389874E-1,5.0057554E-1,1.0406888E0,2.3998785E-1,0E0,0E0,0E0,0E0,0E0,0E0,0E0,0E0],"parents":[2147483647,0,0,1,1,2,2,3,3,4,4,5,5,6,6],"right_children":[2,4,6,8,10,12,14,-1,-1,-1,-1,-1,-1,-1,-1],"split_conditions":[2.6388964E-1,5.356653E-1,6.3310564E-1,1.6785076E-1,5.780501E-1,3.5965574E-1,6.712247E-1,-8.997844E-2,-2.457023E-2,1.3169261E-2,-5.7988245E-2,-5.475051E-2,6.350422E-3,9.237911E-2,4.0802028E-2],"split_indices":[2,0,0,2,0,0,0,0,0,0,0,0,0,0,0],"split_type":[0,0,0,0,0,0,0,0,0,0,0,0,0,0,0],"sum_hessian":[4.0504208E1,8.875046E0,3.1629162E1,5.9571724E0,2.9178731E0,2.335279E1,8.27637E0,4.6184907E0,1.3386818E0,1.0288475E0,1.8890257E0,2.189257E0,2.1163534E1,2.8666039E0,5.409766E0],"tree_param":{"num_deleted":"0","num_feature":"3","num_nodes":"15","size_leaf_vector":"1"}},{"base_weights":[-3.6147386E-2,-6.249853E-1,1.4926869E-1,-8.3013155E-2,-2.1504764E-1,4.5585964E-2,6.149705E-1,1.7082294E-2,-5.2170392E-2,-7.122213E-2,1.1462356E-2,1.9445268E-2,6.7307554E-2],"categories":[],"categories_nodes":[],"categories_segments":[],"categories_sizes":[],"default_left":[0,0,0,0,0,0,0,0,0,0,0,0,0],"id":26,"left_children":[1,3,5,-1,7,9,11,-1,-1,-1,-1,-1,-1],"loss_changes":[4.3601356E0,6.247575E-1,1.4460697E0,0E0,6.2578857E-1,1.4444953E0,2.9973984E-3,0E0,0E0,0E0,0E0,0E0,0E0],"parents":[2147483647,0,0,1,1,2,2,4,4,5,5,6,6],"right_children":[2,4,6,-1,8,10,12,-1,-1,-1,-1,-1,-1],"split_conditions":[2.9014832E-1,5.127746E-1,8.7882096E-1,-8.3013155E-2,5.717066E-1,3.2831675E-1,4.5066237E-1,1.7082294E-2,-5.2170392E-2,-7.122213E-2,1.1462356E-2,1.9445268E-2,6.7307554E-2],"split_indices":[2,0,2,0,0,0,0,0,0,0,0,0,0],"split_type":[0,0,0,0,0,0,0,0,0,0,0,0,0],"sum_hessian":[3.808083E1,8.551753E0,2.9529076E1,5.016375E0,3.535378E0,2.5049911E1,4.4791646E0,1.7616345E0,1.7737436E0,1.3136708E0,2.373624E1,1.071448E0,3.4077168E0],"tree_param":{"num_deleted":"0","num_feature":"3","num_nodes":"13","size_leaf_vector":"1"}},{"base_weights":[1.286625E-2,-6.561492E-1,9.0804726E-1,-9.879806E-2,-1.17574155E-1,2.5975445E-1,1.0646965E-1,-5.8950633E-2,7.526602E-4,5.4731995E-2,-1.6044563E-2],"categories":[],"categories_nodes":[],"categories_segments":[],"categories_sizes":[],"default_left":[0,0,0,0,0,0,0,0,0,0,0],"id":27,"left_children":[1,3,5,-1,7,9,-1,-1,-1,-1,-1],"loss_changes":[2.4944311E1,4.145817E0,1.5319538E0,0E0,6.082138E-1,6.664168E-1,0E0,0E0,0E0,0E0,0E0],"parents":[2147483647,0,0,1,1,2,2,4,4,5,5],"right_children":[2,4,6,-1,8,10,-1,-1,-1,-1,-1],"split_conditions":[7.3200744E-1,1.0022105E-1,8.641641E-1,-9.879806E-2,1.5976134E-1,8.284356E-1,1.0646965E-1,-5.8950633E-2,7.526602E-4,5.4731995E-2,-1.6044563E-2],"split_indices":[1,1,1,0,2,1,0,0,0,0,0],"split_type":[0,0,0,0,0,0,0,0,0,0,0],"sum_hessian":[3.9656048E1,2.2847754E1,1.6808296E1,1.362102E1,9.226732E0,3.7883608E0,1.3019936E1,1.1554903E0,8.071242E0,2.0695407E0,1.7188201E0],"tree_param":{"num_deleted":"0","num_feature":"3","num_nodes":"11","size_leaf_vector":"1"}},{"base_weights":[4.011286E-2,-3.3917138E-1,4.2741337E-1,-6.959251E-1,-1.2660223E-1,-2.312034E-2,4.8002943E-1,-8.449617E-2,-3.175923E-2,3.5840582E-2,-1.9622853E-2,3.3095103E-2,7.4500695E-2],"categories":[],"categories_nodes":[],"categories_segments":[],"categories_sizes":[],"default_left":[0,0,0,0,0,0,0,0,0,0,0,0,0],"id":28,"left_children":[1,3,5,7,9,-1,11,-1,-1,-1,-1,-1,-1],"loss_changes":[5.6105294E0,1.3797143E0,7.642541E-1,1.2659383E-1,5.211857E-1,0E0,4.5586205E-1,0E0,0E0,0E0,0E0,0E0,0E0],"parents":[2147483647,0,0,1,1,2,2,3,3,4,4,6,6],"right_children":[2,4,6,8,10,-1,12,-1,-1,-1,-1,-1,-1],"split_conditions":[6.0674196E-1,1.6785076E-1,3.2360214E-1,5.356653E-1,2.1667144E-1,-2.312034E-2,6.440459E-1,-8.449617E-2,-3.175923E-2,3.5840582E-2,-1.9622853E-2,3.3095103E-2,7.4500695E-2],"split_indices":[2,2,0,0,2,0,0,0,0,0,0,0,0],"split_type":[0,0,0,0,0,0,0,0,0,0,0,0,0],"sum_hessian":[3.620678E1,1.8355482E1,1.7851295E1,6.0044193E0,1.2351063E1,1.0695195E0,1.6781776E1,3.4227247E0,2.5816946E0,1.0298306E0,1.1321232E1,1.2178843E1,4.602934E0],"tree_param":{"num_deleted":"0","num_feature":"3","num_nodes":"13","size_leaf_vector":"1"}},{"base_weights":[-5.5467896E-4,-8.729516E-1,6.9766307E-1,-9.867101E-2,-1.645803E-1,2.8777617E-1,1.0197486E-1,-2.499437E-2,-5.210853E-4,6.669807E-2,-1.5677195E-2],"categories":[],"categories_nodes":[],"categories_segments":[],"categories_sizes":[],"default_left":[0,0,0,0,0,0,0,0,0,0,0],"id":29,"left_children":[1,3,5,-1,7,9,-1,-1,-1,-1,-1],"loss_changes":[2.3224052E1,1.2034206E0,2.5024424E0,0E0,4.6930924E-2,1.9103384E0,0E0,0E0,0E0,0E0,0E0],"parents":[2147483647,0,0,1,1,2,2,4,4,5,5],"right_children":[2,4,6,-1,8,10,-1,-1,-1,-1,-1],"split_conditions":[3.3656538E-1,2.0670785E-1,8.876896E-1,-9.867101E-2,6.160556E-1,5.0916344E-1,1.0197486E-1,-2.499437E-2,-5.210853E-4,6.669807E-2,-1.5677195E-2],"split_indices":[1,1,1,0,0,0,0,0,0,0,0],"split_type":[0,0,0,0,0,0,0,0,0,0,0],"sum_hessian":[3.6127193E1,1.5949114E1,2.017808E1,1.3403669E1,2.5454445E0,9.712018E0,1.0466061E1,1.2874931E0,1.2579514E0,4.971185E0,4.740833E0],"tree_param":{"num_deleted":"0","num_feature":"3","num_nodes":"11","size_leaf_vector":"1"}},{"base_weights":[-7.998031E-2,-5.587282E-1,1.0056875E-1,-9.603764E-2,-1.9464111E-1,3.0039897E-2,-5.9393067E-2],"categories":[],"categories_nodes":[],"categories_segments":[],"categories_sizes":[],"default_left":[0,0,0,0,0,0,0],"id":30,"left_children":[1,3,-1,-1,5,-1,-1],"loss_changes":[1.8957945E1,3.4989138E0,0E0,0E0,3.039575E0,0E0,0E0],"parents":[2147483647,0,0,1,1,4,4],"right_children":[2,4,-1,-1,6,-1,-1],"split_conditions":[8.876896E-1,1.0022105E-1,1.0056875E-1,-9.603764E-2,5.2035946E-1,3.0039897E-2,-5.9393067E-2],"split_indices":[1,1,0,0,0,0,0],"split_type":[0,0,0,0,0,0,0],"sum_hessian":[3.4393253E1,2.4204937E1,1.0188314E1,1.0730102E1,1.3474836E1,6.126658E0,7.348178E0],"tree_param":{"num_deleted":"0","num_feature":"3","num_nodes":"7","size_leaf_vector":"1"}},{"base_weights":[9.3026245E-3,-8.871581E-1,4.9644408E-1,-9.4953254E-2,-2.9473668E-2,4.8432294E-2,1.0089757E-1,-6.9264315E-2,1.7326497E-2],"categories":[],"categories_nodes":[],"categories_segments":[],"categories_sizes":[],"default_left":[0,0,0,0,0,0,0,0,0],"id":31,"left_children":[1,3,5,-1,-1,7,-1,-1,-1],"loss_changes":[1.5533646E1,1.830492E-1,5.2402883E0,0E0,0E0,1.3542123E0,0E0,0E0,0E0],"parents":[2147483647,0,0,1,1,2,2,5,5],"right_children":[2,4,6,-1,-1,8,-1,-1,-1],"split_conditions":[2.0670785E-1,1.0022105E-1,8.641641E-1,-9.4953254E-2,-2.9473668E-2,1.4154442E-1,1.0089757E-1,-6.9264315E-2,1.7326497E-2],"split_indices":[1,1,1,0,0,2,0,0,0],"split_type":[0,0,0,0,0,0,0,0,0],"sum_hessian":[3.356174E1,1.1527373E1,2.2034367E1,9.883922E0,1.6434511E0,1.2341216E1,9.6931505E0,1.1234177E0,1.1217799E1],"tree_param":{"num_deleted":"0","num_feature":"3","num_nodes":"9","size_leaf_vector":"1"}},{"base_weights":[-1.2655625E-2,-7.3055834E-1,5.8934927E-1,-8.71934E-2,-2.3216085E-1,1.3109665E-1,9.7907536E-2,1.093895E-2,-6.758794E-2,4.5780722E-2,-6.660912E-3],"categories":[],"categories_nodes":[],"categories_segments":[],"categories_sizes":[],"default_left":[0,0,0,0,0,0,0,0,0,0,0],"id":32,"left_children":[1,3,5,-1,7,9,-1,-1,-1,-1,-1],"loss_changes":[1.4360225E1,8.648472E-1,3.1013422E0,0E0,7.877495E-1,6.4192414E-1,0E0,0E0,0E0,0E0,0E0],"parents":[2147483647,0,0,1,1,2,2,4,4,5,5],"right_children":[2,4,6,-1,8,10,-1,-1,-1,-1,-1],"split_conditions":[4.5323727E-1,2.2554076E-1,8.876896E-1,-8.71934E-2,3.7743306E-1,5.474683E-1,9.7907536E-2,1.093895E-2,-6.758794E-2,4.5780722E-2,-6.660912E-3],"split_indices":[1,1,1,0,1,2,0,0,0,0,0],"split_type":[0,0,0,0,0,0,0,0,0,0,0],"sum_hessian":[3.1231106E1,1.4146995E1,1.7084112E1,1.0436965E1,3.7100294E0,8.465951E0,8.618161E0,2.5221143E0,1.1879151E0,2.695694E0,5.7702575E0],"tree_param":{"num_deleted":"0","num_feature":"3","num_nodes":"11","size_leaf_vector":"1"}},{"base_weights":[-2.0676238E-2,-4.6081004E-1,9.049448E-1,-9.22951E-2,-1.0718426E-1,3.222932E-2,9.5931344E-2,3.141749E-2,-5.229407E-2],"categories":[],"categories_nodes":[],"categories_segments":[],"categories_sizes":[],"default_left":[0,0,0,0,0,0,0,0,0],"id":33,"left_children":[1,3,5,-1,7,-1,-1,-1,-1],"loss_changes":[1.2844897E1,3.3881269E0,1.2928009E-2,0E0,2.4800756E0,0E0,0E0,0E0,0E0],"parents":[2147483647,0,0,1,1,2,2,4,4],"right_children":[2,4,6,-1,8,-1,-1,-1,-1],"split_conditions":[8.4894025E-1,1.0022105E-1,8.876896E-1,-9.22951E-2,5.2035946E-1,3.222932E-2,9.5931344E-2,3.141749E-2,-5.229407E-2],"split_indices":[1,1,1,0,0,0,0,0,0],"split_type":[0,0,0,0,0,0,0,0,0],"sum_hessian":[2.9505589E1,2.0337328E1,9.168261E0,8.118103E0,1.2219225E1,1.373783E0,7.794478E0,6.190069E0,6.029156E0],"tree_param":{"num_deleted":"0","num_feature":"3","num_nodes":"9","size_leaf_vector":"1"}},{"base_weights":[3.6658905E-2,-6.5464324E-1,1.6345282E-1,-7.881661E-2,-1.4183785E-2,2.2957519E-1,-1.3394514E-1,1.2288594E-2,1.0990844E-1,-6.481892E-2,5.2746873E-2],"categories":[],"categories_nodes":[],"categories_segments":[],"categories_sizes":[],"default_left":[0,0,0,0,0,0,0,0,0,0,0],"id":34,"left_children":[1,3,5,-1,-1,7,9,-1,-1,-1,-1],"loss_changes":[2.5858796E0,2.0200562E-1,5.164219E-1,0E0,0E0,1.7735114E0,2.0846844E0,0E0,0E0,0E0,0E0],"parents":[2147483647,0,0,1,1,2,2,5,5,6,6],"right_children":[2,4,6,-1,-1,8,10,-1,-1,-1,-1],"split_conditions":[1.6785076E-1,5.331291E-1,6.644924E-1,-7.881661E-2,-1.4183785E-2,6.4592695E-1,6.928724E-1,1.2288594E-2,1.0990844E-1,-6.481892E-2,5.2746873E-2],"split_indices":[2,0,0,0,0,0,0,0,0,0,0],"split_type":[0,0,0,0,0,0,0,0,0,0,0],"sum_hessian":[2.7280594E1,3.5829093E0,2.3697685E1,2.4166896E0,1.1662197E0,1.9573778E1,4.123907E0,1.8451141E1,1.1226368E0,2.331319E0,1.7925876E0],"tree_param":{"num_deleted":"0","num_feature":"3","num_nodes":"11","size_leaf_vector":"1"}},{"base_weights":[-7.695162E-2,-4.808355E-1,9.437019E-2,-7.525683E-1,3.4533095E-2,-9.142273E-2,-4.1454956E-2,6.169321E-2,-3.6292557E-2],"categories":[],"categories_nodes":[],"categories_segments":[],"categories_sizes":[],"default_left":[0,0,0,0,0,0,0,0,0],"id":35,"left_children":[1,3,-1,5,7,-1,-1,-1,-1],"loss_changes":[1.23073E1,3.003972E0,0E0,3.842392E-1,2.1445873E0,0E0,0E0,0E0,0E0],"parents":[2147483647,0,0,1,1,3,3,4,4],"right_children":[2,4,-1,6,8,-1,-1,-1,-1],"split_conditions":[8.876896E-1,5.5212027E-1,9.437019E-2,1.0022105E-1,4.6837157E-1,-9.142273E-2,-4.1454956E-2,6.169321E-2,-3.6292557E-2],"split_indices":[1,1,0,1,0,0,0,0,0],"split_type":[0,0,0,0,0,0,0,0,0],"sum_hessian":[2.7754974E1,2.0264847E1,7.490129E0,1.2967408E1,7.297438E0,7.618948E0,5.3484597E0,2.7360673E0,4.561371E0],"tree_param":{"num_deleted":"0","num_feature":"3","num_nodes":"9","size_leaf_vector":"1"}},{"base_weights":[-3.8286548E-2,-7.009447E-1,6.3350195E-1,-9.443256E-2,-2.1062137E-1,2.451507E-1,9.3374185E-2,5.5029374E-3,-4.395696E-2,7.934709E-2,-2.294179E-2],"categories":[],"categories_nodes":[],"categories_segments":[],"categories_sizes":[],"default_left":[0,0,0,0,0,0,0,0,0,0,0],"id":36,"left_children":[1,3,5,-1,7,9,-1,-1,-1,-1,-1],"loss_changes":[1.3121971E1,1.5686631E0,1.481288E0,0E0,4.012951E-1,2.1990447E0,0E0,0E0,0E0,0E0,0E0],"parents":[2147483647,0,0,1,1,2,2,4,4,5,5],"right_children":[2,4,6,-1,8,10,-1,-1,-1,-1,-1],"split_conditions":[6.249842E-1,2.2554076E-1,8.876896E-1,-9.443256E-2,4.074914E-1,5.0916344E-1,9.3374185E-2,5.5029374E-3,-4.395696E-2,7.934709E-2,-2.294179E-2],"split_indices":[1,1,1,0,1,0,0,0,0,0,0],"split_type":[0,0,0,0,0,0,0,0,0,0,0],"sum_hessian":[2.7479078E1,1.3811696E1,1.3667382E1,8.611365E0,5.200331E0,6.7512984E0,6.9160833E0,2.7588522E0,2.441479E0,2.8204944E0,3.9308043E0],"tree_param":{"num_deleted":"0","num_feature":"3","num_nodes":"11","size_leaf_vector":"1"}},{"base_weights":[-4.5962617E-2,-9.166293E-2,3.6286095E-1,5.1978055E-2,9.069513E-2,-6.860941E-2,1.787077E-2],"categories":[],"categories_nodes":[],"categories_segments":[],"categories_sizes":[],"default_left":[0,0,0,0,0,0,0],"id":37,"left_children":[1,-1,3,5,-1,-1,-1],"loss_changes":[9.710106E0,0E0,3.1064045E0,1.3315868E0,0E0,0E0,0E0],"parents":[2147483647,0,0,2,2,3,3],"right_children":[2,-1,4,6,-1,-1,-1],"split_conditions":[2.0670785E-1,-9.166293E-2,8.876896E-1,1.5976134E-1,9.069513E-2,-6.860941E-2,1.787077E-2],"split_indices":[1,0,1,2,0,0,0],"split_type":[0,0,0,0,0,0,0],"sum_hessian":[2.5345057E1,7.7013884E0,1.764367E1,1.1925306E1,5.7183623E0,1.100744E0,1.0824562E1],"tree_param":{"num_deleted":"0","num_feature":"3","num_nodes":"7","size_leaf_vector":"1"}},{"base_weights":[3.981517E-2,-7.825033E-1,4.1227883E-1,-8.771054E-2,-1.5812011E-2,1.18137635E-1,8.975067E-2,4.471201E-2,-1.6289584E-2],"categories":[],"categories_nodes":[],"categories_segments":[],"categories_sizes":[],"default_left":[0,0,0,0,0,0,0,0,0],"id":38,"left_children":[1,3,5,-1,-1,7,-1,-1,-1],"loss_changes":[7.9480224E0,3.4013796E-1,2.4330852E0,0E0,0E0,1.2033368E0,0E0,0E0,0E0],"parents":[2147483647,0,0,1,1,2,2,5,5],"right_children":[2,4,6,-1,-1,8,-1,-1,-1],"split_conditions":[2.0670785E-1,1.0022105E-1,8.876896E-1,-8.771054E-2,-1.5812011E-2,5.2035946E-1,8.975067E-2,4.471201E-2,-1.6289584E-2],"split_indices":[1,1,1,0,0,0,0,0,0],"split_type":[0,0,0,0,0,0,0,0,0],"sum_hessian":[2.3896563E1,7.106368E0,1.6790195E1,5.819834E0,1.2865338E0,1.1227589E1,5.562606E0,4.900268E0,6.3273206E0],"tree_param":{"num_deleted":"0","num_feature":"3","num_nodes":"9","size_leaf_vector":"1"}},{"base_weights":[6.278591E-2,-7.4372816E-1,4.0569592E-1,-8.488609E-2,-1.3888329E-2,7.206577E-2,8.988594E-2,6.356805E-2,-9.135834E-3],"categories":[],"categories_nodes":[],"categories_segments":[],"categories_sizes":[],"default_left":[0,0,0,0,0,0,0,0,0],"id":39,"left_children":[1,3,5,-1,-1,7,-1,-1,-1],"loss_changes":[6.509327E0,3.3035898E-1,2.6329947E0,0E0,0E0,1.059038E0,0E0,0E0,0E0],"parents":[2147483647,0,0,1,1,2,2,5,5],"right_children":[2,4,6,-1,-1,8,-1,-1,-1],"split_conditions":[2.0670785E-1,1.0022105E-1,8.641641E-1,-8.488609E-2,-1.3888329E-2,2.610798E-1,8.988594E-2,6.356805E-2,-9.135834E-3],"split_indices":[1,1,1,0,0,1,0,0,0],"split_type":[0,0,0,0,0,0,0,0,0],"sum_hessian":[2.144562E1,6.049203E0,1.5396417E1,4.809748E0,1.239455E0,9.86725E0,5.529166E0,1.5684038E0,8.298847E0],"tree_param":{"num_deleted":"0","num_feature":"3","num_nodes":"9","size_leaf_vector":"1"}},{"base_weights":[4.73803E-3,-8.8237464E-2,3.7635532E-1,1.22832574E-1,8.590166E-2,-5.5989828E-2,2.42214E-2],"categories":[],"categories_nodes":[],"categories_segments":[],"categories_sizes":[],"default_left":[0,0,0,0,0,0,0],"id":40,"left_children":[1,-1,3,5,-1,-1,-1],"loss_changes":[7.815467E0,0E0,1.9378848E0,1.123072E0,0E0,0E0,0E0],"parents":[2147483647,0,0,2,2,3,3],"right_children":[2,-1,4,6,-1,-1,-1],"split_conditions":[2.0670785E-1,-8.8237464E-2,8.876896E-1,3.5892355E-1,8.590166E-2,-5.5989828E-2,2.42214E-2],"split_indices":[1,0,1,0,0,0,0],"split_type":[0,0,0,0,0,0,0],"sum_hessian":[2.1699856E1,6.0007186E0,1.5699138E1,1.1115236E1,4.583901E0,1.1051269E0,1.0010109E1],"tree_param":{"num_deleted":"0","num_feature":"3","num_nodes":"7","size_leaf_vector":"1"}},{"base_weights":[-6.71532E-2,-6.399496E-1,4.361569E-1,-8.69782E-2,-1.9899982E-1,1.1209339E-1,8.4288076E-2,1.9634558E-2,-4.864568E-2,-1.716276E-2,5.3622913E-2],"categories":[],"categories_nodes":[],"categories_segments":[],"categories_sizes":[],"default_left":[0,0,0,0,0,0,0,0,0,0,0],"id":41,"left_children":[1,3,5,-1,7,9,-1,-1,-1,-1,-1],"loss_changes":[6.4580026E0,8.8389826E-1,1.4875588E0,0E0,6.48987E-1,1.0347086E0,0E0,0E0,0E0,0E0,0E0],"parents":[2147483647,0,0,1,1,2,2,4,4,5,5],"right_children":[2,4,6,-1,8,10,-1,-1,-1,-1,-1],"split_conditions":[4.5323727E-1,2.0670785E-1,8.876896E-1,-8.69782E-2,2.610798E-1,7.0064676E-1,8.4288076E-2,1.9634558E-2,-4.864568E-2,-1.716276E-2,5.3622913E-2],"split_indices":[1,1,1,0,1,2,0,0,0,0,0],"split_type":[0,0,0,0,0,0,0,0,0,0,0],"sum_hessian":[2.0432564E1,9.42962E0,1.1002943E1,5.559416E0,3.8702047E0,6.8336926E0,4.16925E0,1.7627774E0,2.1074271E0,4.451355E0,2.3823376E0],"tree_param":{"num_deleted":"0","num_feature":"3","num_nodes":"11","size_leaf_vector":"1"}},{"base_weights":[-2.0225777E-1,-3.017242E-1,2.730876E-1,-9.27458E-2,-1.8687406E-1,3.4412262E-3,4.2929165E-2,2.3296623E-2,-3.4775462E-2],"categories":[],"categories_nodes":[],"categories_segments":[],"categories_sizes":[],"default_left":[0,0,0,0,0,0,0,0,0],"id":42,"left_children":[1,3,5,-1,7,-1,-1,-1,-1],"loss_changes":[1.0620272E0,1.0921732E0,1.3846463E-1,0E0,1.1705446E0,0E0,0E0,0E0,0E0],"parents":[2147483647,0,0,1,1,2,2,4,4],"right_children":[2,4,6,-1,8,-1,-1,-1,-1],"split_conditions":[8.3024573E-1,3.6112455E-1,5.578243E-1,-9.27458E-2,4.5842543E-1,3.4412262E-3,4.2929165E-2,2.3296623E-2,-3.4775462E-2],"split_indices":[2,0,0,0,0,0,0,0,0],"split_type":[0,0,0,0,0,0,0,0,0],"sum_hessian":[1.9719357E1,1.6609133E1,3.110223E0,1.4785001E0,1.5130632E1,1.713044E0,1.3971789E0,4.067598E0,1.1063035E1],"tree_param":{"num_deleted":"0","num_feature":"3","num_nodes":"9","size_leaf_vector":"1"}},{"base_weights":[-1.9066108E-2,-2.3671246E-1,8.213403E-2,-8.14874E-2,-1.8476803E-2,2.7384946E-2,-2.5548372E-2],"categories":[],"categories_nodes":[],"categories_segments":[],"categories_sizes":[],"default_left":[0,0,0,0,0,0,0],"id":43,"left_children":[1,3,-1,-1,5,-1,-1],"loss_changes":[4.2262497E0,2.292005E0,0E0,0E0,1.060526E0,0E0,0E0],"parents":[2147483647,0,0,1,1,4,4],"right_children":[2,4,-1,-1,6,-1,-1],"split_conditions":[8.876896E-1,1.0022105E-1,8.213403E-2,-8.14874E-2,5.2035946E-1,2.7384946E-2,-2.5548372E-2],"split_indices":[1,1,0,0,0,0,0],"split_type":[0,0,0,0,0,0,0],"sum_hessian":[2.104252E1,1.7284548E1,3.7579727E0,3.9872897E0,1.3297258E1,5.884195E0,7.413063E0],"tree_param":{"num_deleted":"0","num_feature":"3","num_nodes":"7","size_leaf_vector":"1"}},{"base_weights":[3.466709E-2,-6.3262716E-2,1.6496807E-1,4.0223575E-1,-7.3794305E-2,-2.9695986E-2,5.3730678E-2,-2.6759142E-2,6.948196E-2],"categories":[],"categories_nodes":[],"categories_segments":[],"categories_sizes":[],"default_left":[0,0,0,0,0,0,0,0,0],"id":44,"left_children":[1,-1,3,5,7,-1,-1,-1,-1],"loss_changes":[1.767836E0,0E0,9.81371E-1,9.6995974E-1,1.5590318E0,0E0,0E0,0E0,0E0],"parents":[2147483647,0,0,2,2,3,3,4,4],"right_children":[2,-1,4,6,8,-1,-1,-1,-1],"split_conditions":[1.6785076E-1,-6.3262716E-2,6.5640956E-1,4.3023825E-1,6.928724E-1,-2.9695986E-2,5.3730678E-2,-2.6759142E-2,6.948196E-2],"split_indices":[2,0,2,0,0,0,0,0,0],"split_type":[0,0,0,0,0,0,0,0,0],"sum_hessian":[1.813157E1,2.3323052E0,1.5799266E1,7.5810275E0,8.218238E0,1.0333487E0,6.547679E0,7.083953E0,1.1342847E0],"tree_param":{"num_deleted":"0","num_feature":"3","num_nodes":"9","size_leaf_vector":"1"}},{"base_weights":[5.1686373E-2,-6.87984E-2,1.3941087E-1,-4.9213436E-2,2.5455344E-1,6.820994E-2,7.820598E-3],"categories":[],"categories_nodes":[],"categories_segments":[],"categories_sizes":[],"default_left":[0,0,0,0,0,0,0],"id":45,"left_children":[1,-1,3,-1,5,-1,-1],"loss_changes":[1.4471183E0,0E0,1.5394579E0,0E0,1.2365232E0,0E0,0E0],"parents":[2147483647,0,0,2,2,4,4],"right_children":[2,-1,4,-1,6,-1,-1],"split_conditions":[3.6112455E-1,-6.87984E-2,2.6388964E-1,-4.9213436E-2,4.581677E-1,6.820994E-2,7.820598E-3],"split_indices":[0,0,2,0,0,0,0],"split_type":[0,0,0,0,0,0,0],"sum_hessian":[1.9823917E1,1.3763485E0,1.8447569E1,2.3398116E0,1.6107758E1,3.8662627E0,1.2241494E1],"tree_param":{"num_deleted":"0","num_feature":"3","num_nodes":"7","size_leaf_vector":"1"}},{"base_weights":[-4.936193E-3,-6.2372964E-2,9.973402E-2,4.524812E-1,-5.565967E-2,-3.4096462E-4,6.4324126E-2,-2.1934753E-2,3.7753742E-2],"categories":[],"categories_nodes":[],"categories_segments":[],"categories_sizes":[],"default_left":[0,0,0,0,0,0,0,0,0],"id":46,"left_children":[1,-1,3,5,7,-1,-1,-1,-1],"loss_changes":[1.3758377E0,0E0,1.0233333E0,4.9599802E-1,1.042308E0,0E0,0E0,0E0,0E0],"parents":[2147483647,0,0,2,2,3,3,4,4],"right_children":[2,-1,4,6,8,-1,-1,-1,-1],"split_conditions":[1.6785076E-1,-6.2372964E-2,5.308084E-1,4.55769E-1,8.4003246E-1,-3.4096462E-4,6.4324126E-2,-2.1934753E-2,3.7753742E-2],"split_indices":[2,0,2,0,2,0,0,0,0],"split_type":[0,0,0,0,0,0,0,0,0],"sum_hessian":[1.9281704E1,2.072199E0,1.7209505E1,4.6781535E0,1.2531352E1,1.6697651E0,3.0083885E0,9.45307E0,3.0782824E0],"tree_param":{"num_deleted":"0","num_feature":"3","num_nodes":"9","size_leaf_vector":"1"}},{"base_weights":[-3.4839457E-3,-5.1280373E-1,1.06577754E-1,-5.902018E-2,-1.6255578E-2,-1.2342152E-2,3.625545E-1,3.257502E-2,-2.2938835E-2,9.009147E-2,9.910002E-4],"categories":[],"categories_nodes":[],"categories_segments":[],"categories_sizes":[],"default_left":[0,0,0,0,0,0,0,0,0,0,0],"id":47,"left_children":[1,3,5,-1,-1,7,9,-1,-1,-1,-1],"loss_changes":[1.1952513E0,6.7380667E-3,5.390004E-1,0E0,0E0,1.0255013E0,1.0547884E0,0E0,0E0,0E0,0E0],"parents":[2147483647,0,0,1,1,2,2,5,5,6,6],"right_children":[2,4,6,-1,-1,8,10,-1,-1,-1,-1],"split_conditions":[2.9014832E-1,5.356653E-1,6.3310564E-1,-5.902018E-2,-1.6255578E-2,4.5842543E-1,6.585609E-1,3.257502E-2,-2.2938835E-2,9.009147E-2,9.910002E-4],"split_indices":[2,0,0,0,0,0,0,0,0,0,0],"split_type":[0,0,0,0,0,0,0,0,0,0,0],"sum_hessian":[1.9347256E1,2.7877E0,1.6559555E1,1.7220606E0,1.0656395E0,1.1956616E1,4.602938E0,4.4789433E0,7.477673E0,1.2064254E0,3.396513E0],"tree_param":{"num_deleted":"0","num_feature":"3","num_nodes":"11","size_leaf_vector":"1"}},{"base_weights":[7.7297874E-2,-5.7641E-1,6.2943137E-1,-8.793883E-2,-9.296259E-2,-3.3815193E-3,7.111064E-2,2.3570845E-2,-3.6982615E-2],"categories":[],"categories_nodes":[],"categories_segments":[],"categories_sizes":[],"default_left":[0,0,0,0,0,0,0,0,0],"id":48,"left_children":[1,3,5,-1,7,-1,-1,-1,-1],"loss_changes":[7.7963567E0,1.3759904E0,6.5476084E-1,0E0,5.378245E-1,0E0,0E0,0E0,0E0],"parents":[2147483647,0,0,1,1,2,2,4,4],"right_children":[2,4,6,-1,8,-1,-1,-1,-1],"split_conditions":[4.5323727E-1,2.2554076E-1,2.6618135E-1,-8.793883E-2,6.5640956E-1,-3.3815193E-3,7.111064E-2,2.3570845E-2,-3.6982615E-2],"split_indices":[1,1,2,0,2,0,0,0,0],"split_type":[0,0,0,0,0,0,0,0,0],"sum_hessian":[1.9595304E1,8.952211E0,1.0643093E1,4.999815E0,3.9523966E0,1.2311838E0,9.411909E0,1.8750863E0,2.0773103E0],"tree_param":{"num_deleted":"0","num_feature":"3","num_nodes":"9","size_leaf_vector":"1"}},{"base_weights":[-1.1904499E-1,-3.7199813E-1,8.097627E-2,-8.2725875E-2,-1.4161445E-1,2.5325049E-2,-3.205569E-2],"categories":[],"categories_nodes":[],"categories_segments":[],"categories_sizes":[],"default_left":[0,0,0,0,0,0,0],"id":49,"left_children":[1,3,-1,-1,5,-1,-1],"loss_changes":[4.9286995E0,1.5783415E0,0E0,0E0,9.248493E-1,0E0,0E0],"parents":[2147483647,0,0,1,1,4,4],"right_children":[2,4,-1,-1,6,-1,-1],"split_conditions":[8.876896E-1,2.0670785E-1,8.097627E-2,-8.2725875E-2,4.88491E-1,2.5325049E-2,-3.205569E-2],"split_indices":[1,1,0,0,2,0,0],"split_type":[0,0,0,0,0,0,0],"sum_hessian":[1.8695984E1,1.5165321E1,3.5306623E0,4.225176E0,1.09401455E1,3.2821965E0,7.6579494E0],"tree_param":{"num_deleted":"0","num_feature":"3","num_nodes":"7","size_leaf_vector":"1"}}]},"name":"gbtree"},"learner_model_param":{"base_score":"[3E-1]","boost_from_average":"1","num_class":"0","num_feature":"3","num_target":"1"},"objective":{"name":"binary:logistic","reg_loss_param":{"scale_pos_weight":"1"}}},"version":[3,2,0]}