{"learner":{"attributes":{"scikit_learn":"{\"_estimator_type\": \"classifier\"}"},"feature_names":[],"feature_types":[],"gradient_booster":{"model":{"cats":{"enc":[],"feature_segments":[],"sorted_idx":[]},"gbtree_model_param":{"num_parallel_tree":"1","num_trees":"50"},"iteration_indptr":[0,1,2,3,4,5,6,7,8,9,10,11,12,13,14,15,16,17,18,19,20,21,22,23,24,25,26,27,28,29,30,31,32,33,34,35,36,37,38,39,40,41,42,43,44,45,46,47,48,49,50],"tree_info":[0,0,0,0,0,0,0,0,0,0,0,0,0,0,0,0,0,0,0,0,0,0,0,0,0,0,0,0,0,0,0,0,0,0,0,0,0,0,0,0,0,0,0,0,0,0,0,0,0,0],"trees":[{"base_weights":[1.8682009E-2,1.0047846E0,-7.663194E-2,2.6809609E-2,1.3471502E0,-9.205021E-1,-3.730992E-2,5.3097345E-2,-4.4534415E-2,1.8181817E-1,7.692307E-2,-1.0455765E-1,-2.4390247E-2,1.0094318E-2,-2.2172954E-2],"categories":[],"categories_nodes":[],"categories_segments":[],"categories_sizes":[],"default_left":[0,0,0,0,0,0,0,0,0,0,0,0,0,0,0],"id":0,"left_children":[1,3,5,7,9,11,13,-1,-1,-1,-1,-1,-1,-1,-1],"loss_changes":[1.1145183E1,3.4628038E0,3.5596728E0,1.1243657E0,7.029247E-1,1.4948988E-1,2.6875398E0,0E0,0E0,0E0,0E0,0E0,0E0,0E0,0E0],"parents":[2147483647,0,0,1,1,2,2,3,3,4,4,5,5,6,6],"right_children":[2,4,6,8,10,12,14,-1,-1,-1,-1,-1,-1,-1,-1],"split_conditions":[4.874107E-1,4.798563E-1,4.9919474E-1,4.7800526E-1,5.0771916E-1,5.094733E-1,5.1092815E-1,5.3097345E-2,-4.4534415E-2,1.8181817E-1,7.692307E-2,-1.0455765E-1,-2.4390247E-2,1.0094318E-2,-2.2172954E-2],"split_indices":[0,0,2,0,2,0,2,0,0,0,0,0,0,0,0],"split_type":[0,0,0,0,0,0,0,0,0,0,0,0,0,0,0],"sum_hessian":[1.1676E2,9.450001E0,1.07310005E2,2.73E0,6.7200003E0,3.7800002E0,1.0353001E2,1.26E0,1.47E0,2.52E0,4.2000003E0,2.73E0,1.0500001E0,5.9430004E1,4.4100002E1],"tree_param":{"num_deleted":"0","num_feature":"3","num_nodes":"15","size_leaf_vector":"1"}},{"base_weights":[4.2180512E-2,8.0091256E-1,-3.2357574E-2,1.9306028E-1,1.2791848E0,2.6742171E-2,-4.8613614E-1,8.9037E-2,-3.338331E-2,1.5606125E-1,3.1233246E-2,-2.662564E-3,8.192273E-2,-1.09141886E-1,-1.3737646E-2],"categories":[],"categories_nodes":[],"categories_segments":[],"categories_sizes":[],"default_left":[0,0,0,0,0,0,0,0,0,0,0,0,0,0,0],"id":1,"left_children":[1,3,5,7,9,11,13,-1,-1,-1,-1,-1,-1,-1,-1],"loss_changes":[6.5348387E0,2.7573395E0,2.8492193E0,2.401864E0,1.03788E0,4.019304E0,2.433635E0,0E0,0E0,0E0,0E0,0E0,0E0,0E0,0E0],"parents":[2147483647,0,0,1,1,2,2,3,3,4,4,5,5,6,6],"right_children":[2,4,6,8,10,12,14,-1,-1,-1,-1,-1,-1,-1,-1],"split_conditions":[4.874107E-1,4.8360944E-1,5.154969E-1,5.0771916E-1,5.110259E-1,5.144962E-1,4.9974912E-1,8.9037E-2,-3.338331E-2,1.5606125E-1,3.1233246E-2,-2.662564E-3,8.192273E-2,-1.09141886E-1,-1.3737646E-2],"split_indices":[0,0,2,2,2,2,0,0,0,0,0,0,0,0,0],"split_type":[0,0,0,0,0,0,0,0,0,0,0,0,0,0,0],"sum_hessian":[1.1409129E2,9.334035E0,1.0475726E2,4.728318E0,4.605717E0,9.3518555E1,1.1238711E1,1.7381452E0,2.9901729E0,3.0916848E0,1.5140321E0,8.852357E1,4.9949827E0,3.3299885E0,7.908723E0],"tree_param":{"num_deleted":"0","num_feature":"3","num_nodes":"15","size_leaf_vector":"1"}},{"base_weights":[4.4432073E-3,-1.3226013E0,2.9509232E0,-1.3932465E-1,-4.2984918E-1,1.6159284E-1,3.1746364E-1,2.1770148E-2,-6.55872E-2],"categories":[],"categories_nodes":[],"categories_segments":[],"categories_sizes":[],"default_left":[0,0,0,0,0,0,0,0,0],"id":2,"left_children":[1,3,5,-1,7,-1,-1,-1,-1],"loss_changes":[4.6574164E2,4.5807495E0,5.9164124E0,0E0,1.2358805E0,0E0,0E0,0E0,0E0],"parents":[2147483647,0,0,1,1,2,2,4,4],"right_children":[2,4,6,-1,8,-1,-1,-1,-1],"split_conditions":[6.249842E-1,2.0670785E-1,8.876896E-1,-1.3932465E-1,2.465891E-1,1.6159284E-1,3.1746364E-1,2.1770148E-2,-6.55872E-2],"split_indices":[1,1,1,0,1,0,0,0,0],"split_type":[0,0,0,0,0,0,0,0,0],"sum_hessian":[1.1711399E2,8.112692E1,3.5987064E1,7.465844E1,6.4684834E0,6.3452673E0,2.9641798E1,1.6831396E0,4.785344E0],"tree_param":{"num_deleted":"0","num_feature":"3","num_nodes":"9","size_leaf_vector":"1"}},{"base_weights":[3.0057982E-2,-1.2442625E0,2.4566035E0,-1.337376E-1,-3.915094E-1,1.644232E-1,2.58384E-1,1.0698719E-2,-5.9492745E-2],"categories":[],"categories_nodes":[],"categories_segments":[],"categories_sizes":[],"default_left":[0,0,0,0,0,0,0,0,0],"id":3,"left_children":[1,3,5,-1,7,-1,-1,-1,-1],"loss_changes":[3.742094E2,5.7780533E0,5.8258057E-2,0E0,9.9925756E-1,0E0,0E0,0E0,0E0],"parents":[2147483647,0,0,1,1,2,2,4,4],"right_children":[2,4,6,-1,8,-1,-1,-1,-1],"split_conditions":[6.4966446E-1,2.0670785E-1,8.876896E-1,-1.337376E-1,2.610798E-1,1.644232E-1,2.58384E-1,1.0698719E-2,-5.9492745E-2],"split_indices":[1,1,1,0,1,0,0,0,0],"split_type":[0,0,0,0,0,0,0,0,0],"sum_hessian":[1.19028824E2,7.836305E1,4.0665775E1,7.0136444E1,8.226611E0,7.3920474E0,3.3273727E1,2.5214915E0,5.7051196E0],"tree_param":{"num_deleted":"0","num_feature":"3","num_nodes":"9","size_leaf_vector":"1"}},{"base_weights":[-1.789387E-2,-1.2163907E0,2.0795312E0,-1.2884757E-1,-4.0191856E-1,9.278537E-1,2.189446E-1,1.0045421E-1,-8.4267914E-2,1.32242E-1,2.0839721E-2],"categories":[],"categories_nodes":[],"categories_segments":[],"categories_sizes":[],"default_left":[0,0,0,0,0,0,0,0,0,0,0],"id":4,"left_children":[1,3,5,-1,7,9,-1,-1,-1,-1,-1],"loss_changes":[2.916073E2,3.8157501E0,3.3086853E0,0E0,5.4679184E0,1.2604117E0,0E0,0E0,0E0,0E0,0E0],"parents":[2147483647,0,0,1,1,2,2,4,4,5,5],"right_children":[2,4,6,-1,8,10,-1,-1,-1,-1,-1],"split_conditions":[6.249842E-1,2.0670785E-1,8.399762E-1,-1.2884757E-1,4.9406704E-1,5.0910985E-1,2.189446E-1,1.0045421E-1,-8.4267914E-2,1.32242E-1,2.0839721E-2],"split_indices":[1,1,1,0,0,0,0,0,0,0,0],"split_type":[0,0,0,0,0,0,0,0,0,0,0],"sum_hessian":[1.139983E2,7.281238E1,4.1185917E1,6.635744E1,6.454943E0,4.410868E0,3.677505E1,1.2349917E0,5.2199516E0,2.3073719E0,2.1034963E0],"tree_param":{"num_deleted":"0","num_feature":"3","num_nodes":"11","size_leaf_vector":"1"}},{"base_weights":[1.8443994E-2,-1.1731395E0,1.8547597E0,-1.2479209E-1,-3.5094267E-1,4.8968434E-1,1.9176129E-1,1.1438262E-1,-8.068146E-2,6.078446E-2,1.5231647E-2],"categories":[],"categories_nodes":[],"categories_segments":[],"categories_sizes":[],"default_left":[0,0,0,0,0,0,0,0,0,0,0],"id":5,"left_children":[1,3,5,-1,7,9,-1,-1,-1,-1,-1],"loss_changes":[2.4868893E2,3.8006287E0,2.8981628E0,0E0,5.787207E0,3.9423108E-2,0E0,0E0,0E0,0E0,0E0],"parents":[2147483647,0,0,1,1,2,2,4,4,5,5],"right_children":[2,4,6,-1,8,10,-1,-1,-1,-1,-1],"split_conditions":[4.5323727E-1,2.0670785E-1,6.663023E-1,-1.2479209E-1,4.943597E-1,4.9222624E-1,1.9176129E-1,1.1438262E-1,-8.068146E-2,6.078446E-2,1.5231647E-2],"split_indices":[1,1,1,0,0,0,0,0,0,0,0],"split_type":[0,0,0,0,0,0,0,0,0,0,0],"sum_hessian":[1.1165956E2,6.793667E1,4.3722893E1,6.179815E1,6.1385193E0,2.3115E0,4.1411392E1,1.0819134E0,5.056606E0,1.118151E0,1.1933492E0],"tree_param":{"num_deleted":"0","num_feature":"3","num_nodes":"11","size_leaf_vector":"1"}},{"base_weights":[6.71252E-3,-1.1488261E0,1.653748E0,-1.2120143E-1,-5.00201E-1,9.918971E-1,1.8021844E-1,6.1974864E-2,-7.994609E-2,1.304654E-1,6.519814E-2],"categories":[],"categories_nodes":[],"categories_segments":[],"categories_sizes":[],"default_left":[0,0,0,0,0,0,0,0,0,0,0],"id":6,"left_children":[1,3,5,-1,7,9,-1,-1,-1,-1,-1],"loss_changes":[2.0597325E2,2.0006409E0,2.596054E0,0E0,2.9585257E0,2.548275E-1,0E0,0E0,0E0,0E0,0E0],"parents":[2147483647,0,0,1,1,2,2,4,4,5,5],"right_children":[2,4,6,-1,8,10,-1,-1,-1,-1,-1],"split_conditions":[5.5212027E-1,2.0670785E-1,8.876896E-1,-1.2120143E-1,4.9406704E-1,5.0184363E-1,1.8021844E-1,6.1974864E-2,-7.994609E-2,1.304654E-1,6.519814E-2],"split_indices":[1,1,1,0,0,0,0,0,0,0,0],"split_type":[0,0,0,0,0,0,0,0,0,0,0],"sum_hessian":[1.0622571E2,6.2605206E1,4.3620502E1,5.6256207E1,6.3489976E0,9.398152E0,3.422235E1,1.1129515E0,5.236046E0,3.416478E0,5.981674E0],"tree_param":{"num_deleted":"0","num_feature":"3","num_nodes":"11","size_leaf_vector":"1"}},{"base_weights":[-2.9793726E-2,-1.1053506E0,1.5988503E-1,-1.1819148E-1,-4.3866235E-1,5.9696805E-2,-7.939604E-2],"categories":[],"categories_nodes":[],"categories_segments":[],"categories_sizes":[],"default_left":[0,0,0,0,0,0,0],"id":7,"left_children":[1,3,-1,-1,5,-1,-1],"loss_changes":[1.7792688E2,2.6033096E0,0E0,0E0,3.3772316E0,0E0,0E0],"parents":[2147483647,0,0,1,1,4,4],"right_children":[2,4,-1,-1,6,-1,-1],"split_conditions":[6.249842E-1,2.0670785E-1,1.5988503E-1,-1.1819148E-1,4.9406704E-1,5.9696805E-2,-7.939604E-2],"split_indices":[1,1,0,0,0,0,0],"split_type":[0,0,0,0,0,0,0],"sum_hessian":[9.956498E1,6.015795E1,3.9407024E1,5.3267742E1,6.890212E0,1.5862849E0,5.3039274E0],"tree_param":{"num_deleted":"0","num_feature":"3","num_nodes":"7","size_leaf_vector":"1"}},{"base_weights":[-9.664463E-3,-1.068886E0,1.4067488E0,-1.1528982E0,-4.277695E-1,6.153006E-1,1.5410678E-1,-2.3805823E-2,-1.1731116E-1,-1.65832E-2,-6.820682E-2,1.2784405E-1,2.077124E-2],"categories":[],"categories_nodes":[],"categories_segments":[],"categories_sizes":[],"default_left":[0,0,0,0,0,0,0,0,0,0,0,0,0],"id":8,"left_children":[1,3,5,7,9,11,-1,-1,-1,-1,-1,-1,-1],"loss_changes":[1.4647408E2,2.5151672E0,3.492714E0,6.2298584E-1,4.2383456E-1,1.8226218E0,0E0,0E0,0E0,0E0,0E0,0E0,0E0],"parents":[2147483647,0,0,1,1,2,2,3,3,4,4,5,5],"right_children":[2,4,6,8,10,12,-1,-1,-1,-1,-1,-1,-1],"split_conditions":[6.249842E-1,2.0670785E-1,8.4894025E-1,4.9816918E-1,5.086476E-1,5.0408477E-1,1.5410678E-1,-2.3805823E-2,-1.1731116E-1,-1.65832E-2,-6.820682E-2,1.2784405E-1,2.077124E-2],"split_indices":[1,1,1,2,2,2,0,0,0,0,0,0,0],"split_type":[0,0,0,0,0,0,0,0,0,0,0,0,0],"sum_hessian":[9.56279E1,5.485306E1,4.0774837E1,4.7792103E1,7.0609565E0,6.725721E0,3.4049118E1,1.3093474E0,4.6482758E1,4.292072E0,2.768885E0,1.7469162E0,4.9788046E0],"tree_param":{"num_deleted":"0","num_feature":"3","num_nodes":"13","size_leaf_vector":"1"}},{"base_weights":[-6.82253E-4,-1.0699048E0,1.288773E0,-1.1289068E0,-4.5569637E-1,6.3176584E-1,1.4734274E-1,-1.669635E-2,-1.15019135E-1,1.2641507E-2,-7.466015E-2,1.2266908E-1,7.853477E-3],"categories":[],"categories_nodes":[],"categories_segments":[],"categories_sizes":[],"default_left":[0,0,0,0,0,0,0,0,0,0,0,0,0],"id":9,"left_children":[1,3,5,7,9,11,-1,-1,-1,-1,-1,-1,-1],"loss_changes":[1.27554794E2,1.31847E0,4.1572266E0,7.38884E-1,1.1289847E0,3.5082603E0,0E0,0E0,0E0,0E0,0E0,0E0,0E0],"parents":[2147483647,0,0,1,1,2,2,3,3,4,4,5,5],"right_children":[2,4,6,8,10,12,-1,-1,-1,-1,-1,-1,-1],"split_conditions":[4.5323727E-1,2.0670785E-1,8.876896E-1,4.9816918E-1,2.465891E-1,5.0575477E-1,1.4734274E-1,-1.669635E-2,-1.15019135E-1,1.2641507E-2,-7.466015E-2,1.2266908E-1,7.853477E-3],"split_indices":[1,1,1,2,1,2,0,0,0,0,0,0,0],"split_type":[0,0,0,0,0,0,0,0,0,0,0,0,0],"sum_hessian":[9.051708E1,4.957747E1,4.0939613E1,4.446782E1,5.109647E0,9.951866E0,3.098775E1,1.1540766E0,4.3313744E1,1.891044E0,3.2186027E0,4.2086806E0,5.7431855E0],"tree_param":{"num_deleted":"0","num_feature":"3","num_nodes":"13","size_leaf_vector":"1"}},{"base_weights":[4.4960517E-2,-1.0263828E0,1.2766228E0,-1.10801294E-1,-2.5892934E-1,6.0578763E-1,1.3967249E-1,6.440657E-2,-5.9108187E-2,9.0974465E-2,1.5339183E-2],"categories":[],"categories_nodes":[],"categories_segments":[],"categories_sizes":[],"default_left":[0,0,0,0,0,0,0,0,0,0,0],"id":10,"left_children":[1,3,5,-1,7,9,-1,-1,-1,-1,-1],"loss_changes":[1.1952014E2,2.7492905E0,2.5474243E0,0E0,2.1695826E0,9.827609E-1,0E0,0E0,0E0,0E0,0E0],"parents":[2147483647,0,0,1,1,2,2,4,4,5,5],"right_children":[2,4,6,-1,8,10,-1,-1,-1,-1,-1],"split_conditions":[4.5323727E-1,2.0670785E-1,8.399762E-1,-1.10801294E-1,4.943597E-1,6.947905E-1,1.3967249E-1,6.440657E-2,-5.9108187E-2,9.0974465E-2,1.5339183E-2],"split_indices":[1,1,1,0,0,1,0,0,0,0,0],"split_type":[0,0,0,0,0,0,0,0,0,0,0],"sum_hessian":[8.8584595E1,4.746475E1,4.1119846E1,4.250044E1,4.9643073E0,7.1617155E0,3.395813E1,1.0824572E0,3.8818502E0,3.678946E0,3.4827695E0],"tree_param":{"num_deleted":"0","num_feature":"3","num_nodes":"11","size_leaf_vector":"1"}},{"base_weights":[-8.049956E-2,2.9894066E-1,-1.1752842E-1,-1.17991E-1,6.017196E-2,-7.540943E-2,-4.2445228E-1,-2.172528E-2,4.7159647E-3,-1.0832665E-2,5.7426084E-2,-6.69328E-2,9.031414E-3],"categories":[],"categories_nodes":[],"categories_segments":[],"categories_sizes":[],"default_left":[0,0,0,0,0,0,0,0,0,0,0,0,0],"id":11,"left_children":[1,3,5,7,-1,9,11,-1,-1,-1,-1,-1,-1],"loss_changes":[1.1247654E0,9.7707266E-1,8.9067984E-1,7.345101E-2,0E0,1.4304035E0,1.118895E0,0E0,0E0,0E0,0E0,0E0,0E0],"parents":[2147483647,0,0,1,1,2,2,3,3,5,5,6,6],"right_children":[2,4,6,8,-1,10,12,-1,-1,-1,-1,-1,-1],"split_conditions":[4.874107E-1,4.8241988E-1,5.154969E-1,5.0927365E-1,6.017196E-2,5.148653E-1,5.126207E-1,-2.172528E-2,4.7159647E-3,-1.0832665E-2,5.7426084E-2,-6.69328E-2,9.031414E-3],"split_indices":[0,0,2,2,0,2,0,0,0,0,0,0,0],"split_type":[0,0,0,0,0,0,0,0,0,0,0,0,0],"sum_hessian":[7.655249E1,6.1775064E0,7.037498E1,2.8556018E0,3.3219044E0,6.2978207E1,7.3967733E0,1.5865455E0,1.2690563E0,6.073421E1,2.2439969E0,4.8089075E0,2.5878656E0],"tree_param":{"num_deleted":"0","num_feature":"3","num_nodes":"13","size_leaf_vector":"1"}},{"base_weights":[-2.1041399E-2,-1.044193E0,1.1811688E0,-1.1086563E-1,-6.504268E-1,5.7739335E-1,1.348486E-1,3.3204794E-2,-8.9659974E-2,2.7281856E-2,8.218993E-2],"categories":[],"categories_nodes":[],"categories_segments":[],"categories_sizes":[],"default_left":[0,0,0,0,0,0,0,0,0,0,0],"id":12,"left_children":[1,3,5,-1,7,9,-1,-1,-1,-1,-1],"loss_changes":[1.0148222E2,4.099846E-1,3.0542183E0,0E0,2.3989975E0,5.1908875E-1,0E0,0E0,0E0,0E0,0E0],"parents":[2147483647,0,0,1,1,2,2,4,4,5,5],"right_children":[2,4,6,-1,8,10,-1,-1,-1,-1,-1],"split_conditions":[4.5323727E-1,1.0022105E-1,8.876896E-1,-1.1086563E-1,4.9406704E-1,5.100506E-1,1.348486E-1,3.3204794E-2,-8.9659974E-2,2.7281856E-2,8.218993E-2],"split_indices":[1,1,1,0,0,0,0,0,0,0,0],"split_type":[0,0,0,0,0,0,0,0,0,0,0],"sum_hessian":[8.0500275E1,4.355978E1,3.6940495E1,3.5871716E1,7.688063E0,8.9814E0,2.7959095E1,1.4704931E0,6.2175703E0,4.941586E0,4.0398135E0],"tree_param":{"num_deleted":"0","num_feature":"3","num_nodes":"11","size_leaf_vector":"1"}},{"base_weights":[-8.829954E-2,-1.0320177E0,1.108231E0,-1.0713338E-1,-6.171787E-1,3.4756812E-1,1.2698154E-1,4.9750965E-2,-9.91516E-2,5.29988E-2,-2.9031664E-2],"categories":[],"categories_nodes":[],"categories_segments":[],"categories_sizes":[],"default_left":[0,0,0,0,0,0,0,0,0,0,0],"id":13,"left_children":[1,3,5,-1,7,9,-1,-1,-1,-1,-1],"loss_changes":[8.4508896E1,2.041626E-2,3.6191025E0,0E0,2.9872558E0,9.87599E-1,0E0,0E0,0E0,0E0,0E0],"parents":[2147483647,0,0,1,1,2,2,4,4,5,5],"right_children":[2,4,6,-1,8,10,-1,-1,-1,-1,-1],"split_conditions":[6.249842E-1,2.3228727E-1,8.4894025E-1,-1.0713338E-1,4.9406704E-1,5.1704687E-1,1.2698154E-1,4.9750965E-2,-9.91516E-2,5.29988E-2,-2.9031664E-2],"split_indices":[1,1,1,0,0,0,0,0,0,0,0],"split_type":[0,0,0,0,0,0,0,0,0,0,0],"sum_hessian":[7.282759E1,4.079196E1,3.2035625E1,3.5815086E1,4.976876E0,6.164955E0,2.587067E1,1.1684539E0,3.8084219E0,4.925521E0,1.2394342E0],"tree_param":{"num_deleted":"0","num_feature":"3","num_nodes":"11","size_leaf_vector":"1"}},{"base_weights":[3.7421316E-2,-9.1183114E-1,1.1977678E-1,-1.0498595E0,-5.6646254E-2,-6.656146E-3,-1.07839145E-1,5.3256083E-2,-3.01349E-2],"categories":[],"categories_nodes":[],"categories_segments":[],"categories_sizes":[],"default_left":[0,0,0,0,0,0,0,0,0],"id":14,"left_children":[1,3,-1,5,7,-1,-1,-1,-1],"loss_changes":[7.752808E1,4.5130615E0,0E0,8.6236954E-1,1.0890677E0,0E0,0E0,0E0,0E0],"parents":[2147483647,0,0,1,1,3,3,4,4],"right_children":[2,4,-1,6,8,-1,-1,-1,-1],"split_conditions":[6.249842E-1,2.0670785E-1,1.1977678E-1,4.9816918E-1,2.465891E-1,-6.656146E-3,-1.07839145E-1,5.3256083E-2,-3.01349E-2],"split_indices":[1,1,0,2,1,0,0,0,0],"split_type":[0,0,0,0,0,0,0,0,0],"sum_hessian":[6.839498E1,3.7737213E1,3.0657766E1,3.229681E1,5.440403E0,1.004697E0,3.1292114E1,1.2512425E0,4.1891603E0],"tree_param":{"num_deleted":"0","num_feature":"3","num_nodes":"9","size_leaf_vector":"1"}},{"base_weights":[2.6966859E-2,-5.6538194E-2,5.1858973E-2,3.6265528E-1,-2.8026545E-2,-5.6364327E-3,4.9244296E-2,7.1023703E-3,-2.2662811E-2],"categories":[],"categories_nodes":[],"categories_segments":[],"categories_sizes":[],"default_left":[0,0,0,0,0,0,0,0,0],"id":15,"left_children":[1,-1,3,5,7,-1,-1,-1,-1],"loss_changes":[1.0173213E0,0E0,1.6294647E0,7.5692165E-1,1.0550007E0,0E0,0E0,0E0,0E0],"parents":[2147483647,0,0,2,2,3,3,4,4],"right_children":[2,-1,4,6,8,-1,-1,-1,-1],"split_conditions":[4.9919474E-1,-5.6538194E-2,5.052582E-1,5.0157684E-1,5.0928444E-1,-5.6364327E-3,4.9244296E-2,7.1023703E-3,-2.2662811E-2],"split_indices":[2,0,2,2,0,0,0,0,0],"split_type":[0,0,0,0,0,0,0,0,0],"sum_hessian":[6.600668E1,1.7862655E0,6.422042E1,1.24078245E1,5.1812595E1,3.0681188E0,9.339705E0,3.4999416E1,1.6813177E1],"tree_param":{"num_deleted":"0","num_feature":"3","num_nodes":"9","size_leaf_vector":"1"}},{"base_weights":[4.780869E-2,-8.575759E-1,1.1121253E0,-1.0338801E0,-2.9774774E-2,4.6948805E-1,1.22771755E-1,-1.3281815E-2,-1.0655906E-1,2.2277689E-2,-7.3433064E-2,1.0264355E-1,4.4827428E-4],"categories":[],"categories_nodes":[],"categories_segments":[],"categories_sizes":[],"default_left":[0,0,0,0,0,0,0,0,0,0,0,0,0],"id":16,"left_children":[1,3,5,7,9,11,-1,-1,-1,-1,-1,-1,-1],"loss_changes":[6.395137E1,5.207222E0,1.6882172E0,7.0306206E-1,1.4681165E0,1.618392E0,0E0,0E0,0E0,0E0,0E0,0E0,0E0],"parents":[2147483647,0,0,1,1,2,2,3,3,4,4,5,5],"right_children":[2,4,6,8,10,12,-1,-1,-1,-1,-1,-1,-1],"split_conditions":[6.663023E-1,2.2554076E-1,8.4894025E-1,4.9816918E-1,5.1402134E-1,5.0408477E-1,1.22771755E-1,-1.3281815E-2,-1.0655906E-1,2.2277689E-2,-7.3433064E-2,1.0264355E-1,4.4827428E-4],"split_indices":[1,1,1,2,2,2,0,0,0,0,0,0,0],"split_type":[0,0,0,0,0,0,0,0,0,0,0,0,0],"sum_hessian":[6.43763E1,3.489032E1,2.948598E1,2.8558924E1,6.331395E0,5.266782E0,2.4219196E1,1.1472781E0,2.7411646E1,5.1641016E0,1.1672933E0,1.8471024E0,3.4196794E0],"tree_param":{"num_deleted":"0","num_feature":"3","num_nodes":"13","size_leaf_vector":"1"}},{"base_weights":[-7.303441E-2,2.232927E-1,-1.3610753E-1,-4.859481E-2,3.516432E-1,-4.6235967E-1,-7.3733576E-2,6.262714E-2,-2.5061702E-2,-1.0541505E-2,-5.1495727E-2,2.0983322E-2,-1.3374644E-2],"categories":[],"categories_nodes":[],"categories_segments":[],"categories_sizes":[],"default_left":[0,0,0,0,0,0,0,0,0,0,0,0,0],"id":17,"left_children":[1,3,5,-1,7,9,11,-1,-1,-1,-1,-1,-1],"loss_changes":[1.1830496E0,1.1905942E0,1.013299E0,0E0,1.8217505E0,9.724617E-2,7.836253E-1,0E0,0E0,0E0,0E0,0E0,0E0],"parents":[2147483647,0,0,1,1,2,2,4,4,5,5,6,6],"right_children":[2,4,6,-1,8,10,12,-1,-1,-1,-1,-1,-1],"split_conditions":[4.922843E-1,5.023236E-1,4.9748418E-1,-4.859481E-2,5.110259E-1,4.9339876E-1,5.01147E-1,6.262714E-2,-2.5061702E-2,-1.0541505E-2,-5.1495727E-2,2.0983322E-2,-1.3374644E-2],"split_indices":[0,2,0,0,2,0,0,0,0,0,0,0,0],"split_type":[0,0,0,0,0,0,0,0,0,0,0,0,0],"sum_hessian":[6.0671516E1,1.020178E1,5.0469734E1,1.1363611E0,9.065419E0,7.071094E0,4.339864E1,6.1988854E0,2.8665342E0,1.2939696E0,5.7771244E0,7.14436E0,3.625428E1],"tree_param":{"num_deleted":"0","num_feature":"3","num_nodes":"13","size_leaf_vector":"1"}},{"base_weights":[1.0746466E-2,-8.248884E-1,1.0104603E0,-1.0161043E0,-9.081117E-2,3.9936912E-1,1.18284896E-1,-1.0477965E-1,-4.5052987E-2,7.452125E-2,-5.4928433E-2,8.018268E-2,8.158061E-3],"categories":[],"categories_nodes":[],"categories_segments":[],"categories_sizes":[],"default_left":[0,0,0,0,0,0,0,0,0,0,0,0,0],"id":18,"left_children":[1,3,5,7,9,11,-1,-1,-1,-1,-1,-1,-1],"loss_changes":[5.387417E1,4.839449E0,2.620245E0,2.5793076E-2,3.613227E0,9.538171E-1,0E0,0E0,0E0,0E0,0E0,0E0,0E0],"parents":[2147483647,0,0,1,1,2,2,3,3,4,4,5,5],"right_children":[2,4,6,8,10,12,-1,-1,-1,-1,-1,-1,-1],"split_conditions":[6.663023E-1,2.0670785E-1,8.876896E-1,1.0022105E-1,4.9406704E-1,5.0184363E-1,1.18284896E-1,-1.0477965E-1,-4.5052987E-2,7.452125E-2,-5.4928433E-2,8.018268E-2,8.158061E-3],"split_indices":[1,1,1,1,0,0,0,0,0,0,0,0,0],"split_type":[0,0,0,0,0,0,0,0,0,0,0,0,0],"sum_hessian":[6.2491646E1,3.4134434E1,2.8357212E1,2.6775604E1,7.3588305E0,6.9691873E0,2.1388025E1,2.4547457E1,2.2281463E0,2.3847775E0,4.974053E0,2.4029136E0,4.5662737E0],"tree_param":{"num_deleted":"0","num_feature":"3","num_nodes":"13","size_leaf_vector":"1"}},{"base_weights":[3.8311373E-2,-8.1125677E-1,1.0431148E0,-9.9854344E-1,-1.2691142E-1,2.9658693E-1,1.1471521E-1,-1.0335497E-1,-4.371522E-2,4.495849E-2,-4.5754008E-2,6.178052E-2,-3.9439383E-3],"categories":[],"categories_nodes":[],"categories_segments":[],"categories_sizes":[],"default_left":[0,0,0,0,0,0,0,0,0,0,0,0,0],"id":19,"left_children":[1,3,5,7,9,11,-1,-1,-1,-1,-1,-1,-1],"loss_changes":[4.990905E1,3.936903E0,1.7388229E0,3.451729E-2,1.722564E0,5.2335656E-1,0E0,0E0,0E0,0E0,0E0,0E0,0E0],"parents":[2147483647,0,0,1,1,2,2,3,3,4,4,5,5],"right_children":[2,4,6,8,10,12,-1,-1,-1,-1,-1,-1,-1],"split_conditions":[6.4966446E-1,2.0670785E-1,7.8882265E-1,1.0022105E-1,4.9406704E-1,6.947905E-1,1.1471521E-1,-1.0335497E-1,-4.371522E-2,4.495849E-2,-4.5754008E-2,6.178052E-2,-3.9439383E-3],"split_indices":[1,1,1,1,0,1,0,0,0,0,0,0,0],"split_type":[0,0,0,0,0,0,0,0,0,0,0,0,0],"sum_hessian":[5.6474228E1,3.0705303E1,2.5768923E1,2.3747215E1,6.9580874E0,3.6229484E0,2.2145975E1,2.156166E1,2.185555E0,2.4049463E0,4.553141E0,1.4235601E0,2.1993883E0],"tree_param":{"num_deleted":"0","num_feature":"3","num_nodes":"13","size_leaf_vector":"1"}},{"base_weights":[-5.7838857E-2,2.1564E-1,-1.3991448E-1,-2.4240077E-1,4.546781E-1,-7.780665E-2,-6.4751305E-2,-5.6526937E-2,5.314801E-2,6.1862934E-2,6.776673E-3,1.3217889E-2,-2.438259E-2],"categories":[],"categories_nodes":[],"categories_segments":[],"categories_sizes":[],"default_left":[0,0,0,0,0,0,0,0,0,0,0,0,0],"id":20,"left_children":[1,3,5,7,9,-1,11,-1,-1,-1,-1,-1,-1],"loss_changes":[1.2664015E0,1.5453045E0,2.0106382E0,1.586439E0,5.2646756E-1,0E0,1.4263265E0,0E0,0E0,0E0,0E0,0E0,0E0],"parents":[2147483647,0,0,1,1,2,2,3,3,4,4,6,6],"right_children":[2,4,6,8,10,-1,12,-1,-1,-1,-1,-1,-1],"split_conditions":[5.052582E-1,5.0157684E-1,5.0645465E-1,5.1164013E-1,5.0436187E-1,-7.780665E-2,5.021136E-1,-5.6526937E-2,5.314801E-2,6.1862934E-2,6.776673E-3,1.3217889E-2,-2.438259E-2],"split_indices":[2,2,2,0,2,0,0,0,0,0,0,0,0],"split_type":[0,0,0,0,0,0,0,0,0,0,0,0,0],"sum_hessian":[5.4075882E1,1.2107139E1,4.1968746E1,4.146883E0,7.9602556E0,3.436911E0,3.8531834E1,3.1163044E0,1.0305789E0,5.170428E0,2.789828E0,1.8475744E1,2.0056087E1],"tree_param":{"num_deleted":"0","num_feature":"3","num_nodes":"13","size_leaf_vector":"1"}},{"base_weights":[-8.703553E-3,-5.2286364E-2,3.1500918E-1,1.0984109E-2,-4.5692265E-1,6.393536E-2,6.2371265E-2,-3.463637E-2,5.8377255E-3,-1.4911479E-2,-5.9223752E-2,4.010999E-2,-3.37278E-2],"categories":[],"categories_nodes":[],"categories_segments":[],"categories_sizes":[],"default_left":[0,0,0,0,0,0,0,0,0,0,0,0,0],"id":21,"left_children":[1,3,5,7,9,-1,11,-1,-1,-1,-1,-1,-1],"loss_changes":[7.965336E-1,1.2745451E0,5.093874E-1,7.6301104E-1,1.919483E-1,0E0,7.9538405E-1,0E0,0E0,0E0,0E0,0E0,0E0],"parents":[2147483647,0,0,1,1,2,2,3,3,4,4,6,6],"right_children":[2,4,6,8,10,-1,12,-1,-1,-1,-1,-1,-1],"split_conditions":[5.178064E-1,5.13288E-1,5.20931E-1,5.024166E-1,5.084784E-1,6.393536E-2,5.091304E-1,-3.463637E-2,5.8377255E-3,-1.4911479E-2,-5.9223752E-2,4.010999E-2,-3.37278E-2],"split_indices":[0,0,0,2,2,0,2,0,0,0,0,0,0],"split_type":[0,0,0,0,0,0,0,0,0,0,0,0,0],"sum_hessian":[5.4291023E1,4.858791E1,5.703116E0,4.2859142E1,5.7287645E0,1.8269322E0,3.876184E0,4.279921E0,3.8579224E1,2.3912487E0,3.3375158E0,2.0960317E0,1.7801521E0],"tree_param":{"num_deleted":"0","num_feature":"3","num_nodes":"13","size_leaf_vector":"1"}},{"base_weights":[-2.3264068E-3,2.526039E-1,-6.497884E-2,-9.947784E-2,5.1356375E-1,-3.5302047E-2,-5.329464E-2,-3.2224316E-2,3.781461E-2,5.6170274E-2,1.704727E-2,-8.849576E-3,5.189989E-2],"categories":[],"categories_nodes":[],"categories_segments":[],"categories_sizes":[],"default_left":[0,0,0,0,0,0,0,0,0,0,0,0,0],"id":22,"left_children":[1,3,5,7,9,11,-1,-1,-1,-1,-1,-1,-1],"loss_changes":[8.8214314E-1,1.0523608E0,5.964869E-1,7.0456225E-1,1.0295272E-2,1.3059562E0,0E0,0E0,0E0,0E0,0E0,0E0,0E0],"parents":[2147483647,0,0,1,1,2,2,3,3,4,4,5,5],"right_children":[2,4,6,8,10,12,-1,-1,-1,-1,-1,-1,-1],"split_conditions":[5.0436187E-1,5.017336E-1,5.250551E-1,5.1164013E-1,5.128527E-1,5.1838857E-1,-5.329464E-2,-3.2224316E-2,3.781461E-2,5.6170274E-2,1.704727E-2,-8.849576E-3,5.189989E-2],"split_indices":[2,2,0,0,0,0,0,0,0,0,0,0,0],"split_type":[0,0,0,0,0,0,0,0,0,0,0,0,0],"sum_hessian":[5.3202927E1,9.897709E0,4.3305218E1,4.476673E0,5.421036E0,4.173403E1,1.5711827E0,3.2746747E0,1.2019984E0,4.195223E0,1.2258127E0,3.8846462E1,2.8875697E0],"tree_param":{"num_deleted":"0","num_feature":"3","num_nodes":"13","size_leaf_vector":"1"}},{"base_weights":[4.8657224E-2,-8.9591026E-1,1.0007104E0,-1.0278603E-1,-1.5342003E-1,6.130252E-1,1.1302451E-1,4.369552E-2,-4.2244002E-2,9.631997E-2,2.8741559E-2],"categories":[],"categories_nodes":[],"categories_segments":[],"categories_sizes":[],"default_left":[0,0,0,0,0,0,0,0,0,0,0],"id":23,"left_children":[1,3,5,-1,7,9,-1,-1,-1,-1,-1],"loss_changes":[5.011174E1,2.5854492E0,6.995983E-1,0E0,1.0423025E0,7.6411605E-1,0E0,0E0,0E0,0E0,0E0],"parents":[2147483647,0,0,1,1,2,2,4,4,5,5],"right_children":[2,4,6,-1,8,10,-1,-1,-1,-1,-1],"split_conditions":[4.5323727E-1,2.0670785E-1,8.876896E-1,-1.0278603E-1,4.9406704E-1,5.0184363E-1,1.1302451E-1,4.369552E-2,-4.2244002E-2,9.631997E-2,2.8741559E-2],"split_indices":[1,1,1,0,0,0,0,0,0,0,0],"split_type":[0,0,0,0,0,0,0,0,0,0,0],"sum_hessian":[5.372742E1,2.699934E1,2.672808E1,2.2598885E1,4.400455E0,8.129567E0,1.8598515E1,1.1820816E0,3.2183735E0,2.9735458E0,5.156021E0],"tree_param":{"num_deleted":"0","num_feature":"3","num_nodes":"11","size_leaf_vector":"1"}},{"base_weights":[-2.5339259E-2,-8.1164443E-1,8.969348E-1,-1.0177028E-1,-8.530919E-2,2.9907426E-1,1.1036871E-1,1.8936444E-2,-7.673312E-2,9.444853E-2,-1.0632093E-2],"categories":[],"categories_nodes":[],"categories_segments":[],"categories_sizes":[],"default_left":[0,0,0,0,0,0,0,0,0,0,0],"id":24,"left_children":[1,3,5,-1,7,9,-1,-1,-1,-1,-1],"loss_changes":[3.7811954E1,4.1230583E0,2.637619E0,0E0,1.514302E0,2.0734863E0,0E0,0E0,0E0,0E0,0E0],"parents":[2147483647,0,0,1,1,2,2,4,4,5,5],"right_children":[2,4,6,-1,8,10,-1,-1,-1,-1,-1],"split_conditions":[6.663023E-1,2.0670785E-1,8.876896E-1,-1.0177028E-1,5.1402134E-1,5.052582E-1,1.1036871E-1,1.8936444E-2,-7.673312E-2,9.444853E-2,-1.0632093E-2],"split_indices":[1,1,1,0,2,2,0,0,0,0,0],"split_type":[0,0,0,0,0,0,0,0,0,0,0],"sum_hessian":[5.013698E1,2.7128191E1,2.3008787E1,2.0820383E1,6.307807E0,6.5409665E0,1.646782E1,5.011751E0,1.2960556E0,2.0104432E0,4.5305233E0],"tree_param":{"num_deleted":"0","num_feature":"3","num_nodes":"11","size_leaf_vector":"1"}},{"base_weights":[-2.5360908E-2,1.8763915E-1,-9.073555E-2,-1.830115E-1,4.1937342E-1,-4.3104854E-1,-4.5779742E-2,-4.3887086E-2,4.0622517E-2,5.0069947E-2,9.142491E-3,-7.4020214E-2,1.8154675E-3,3.34616E-2,-1.0000737E-2],"categories":[],"categories_nodes":[],"categories_segments":[],"categories_sizes":[],"default_left":[0,0,0,0,0,0,0,0,0,0,0,0,0,0,0],"id":25,"left_children":[1,3,5,7,9,11,13,-1,-1,-1,-1,-1,-1,-1,-1],"loss_changes":[6.950363E-1,1.0869064E0,5.60562E-1,9.653274E-1,1.5532756E-1,6.115806E-1,7.4766666E-1,0E0,0E0,0E0,0E0,0E0,0E0,0E0,0E0],"parents":[2147483647,0,0,1,1,2,2,3,3,4,4,5,5,6,6],"right_children":[2,4,6,8,10,12,14,-1,-1,-1,-1,-1,-1,-1,-1],"split_conditions":[5.052582E-1,5.017336E-1,5.0645465E-1,5.1164013E-1,5.0436187E-1,5.0512624E-1,5.0764215E-1,-4.3887086E-2,4.0622517E-2,5.0069947E-2,9.142491E-3,-7.4020214E-2,1.8154675E-3,3.34616E-2,-1.0000737E-2],"split_indices":[2,2,2,0,2,0,2,0,0,0,0,0,0,0,0],"split_type":[0,0,0,0,0,0,0,0,0,0,0,0,0,0,0],"sum_hessian":[4.7690876E1,1.0760709E1,3.693017E1,4.220471E0,6.5402384E0,3.307126E0,3.362304E1,3.1206183E0,1.0998526E0,4.8185515E0,1.7216867E0,1.575212E0,1.731914E0,3.5499914E0,3.007305E1],"tree_param":{"num_deleted":"0","num_feature":"3","num_nodes":"15","size_leaf_vector":"1"}},{"base_weights":[-3.559312E-2,2.4648035E-1,-9.446987E-2,-3.4597147E-2,3.7771147E-1,-1.4677124E-1,2.1570829E-1,4.7150664E-2,3.1985303E-3,-9.722761E-3,-4.5661863E-2,4.5833282E-2,-2.4141816E-2],"categories":[],"categories_nodes":[],"categories_segments":[],"categories_sizes":[],"default_left":[0,0,0,0,0,0,0,0,0,0,0,0,0],"id":26,"left_children":[1,3,5,-1,7,9,11,-1,-1,-1,-1,-1,-1],"loss_changes":[7.957584E-1,7.767022E-1,6.6765845E-1,0E0,2.2100663E-1,4.7972518E-1,7.829411E-1,0E0,0E0,0E0,0E0,0E0,0E0],"parents":[2147483647,0,0,1,1,2,2,4,4,5,5,6,6],"right_children":[2,4,6,-1,8,10,12,-1,-1,-1,-1,-1,-1],"split_conditions":[4.9162596E-1,4.798563E-1,5.178064E-1,-3.4597147E-2,5.110259E-1,5.1432127E-1,5.250551E-1,4.7150664E-2,3.1985303E-3,-9.722761E-3,-4.5661863E-2,4.5833282E-2,-2.4141816E-2],"split_indices":[0,0,0,0,2,0,0,0,0,0,0,0,0],"split_type":[0,0,0,0,0,0,0,0,0,0,0,0,0],"sum_hessian":[4.551334E1,7.309202E0,3.820414E1,1.0287025E0,6.2804995E0,3.314255E1,5.0615883E0,4.654046E0,1.6264535E0,2.9706383E1,3.4361675E0,3.3048606E0,1.7567275E0],"tree_param":{"num_deleted":"0","num_feature":"3","num_nodes":"13","size_leaf_vector":"1"}},{"base_weights":[3.564604E-2,-9.582785E-1,7.212525E-1,-9.313325E-3,-1.0045111E-1,1.491191E-1,1.0911801E-1,2.9790182E-2,-7.0976056E-2],"categories":[],"categories_nodes":[],"categories_segments":[],"categories_sizes":[],"default_left":[0,0,0,0,0,0,0,0,0],"id":27,"left_children":[1,3,5,-1,-1,7,-1,-1,-1],"loss_changes":[3.3640423E1,7.1310425E-1,6.0141926E0,0E0,0E0,1.8239202E0,0E0,0E0,0E0],"parents":[2147483647,0,0,1,1,2,2,5,5],"right_children":[2,4,6,-1,-1,8,-1,-1,-1],"split_conditions":[2.0670785E-1,4.996543E-1,8.641641E-1,-9.313325E-3,-1.0045111E-1,5.154969E-1,1.0911801E-1,2.9790182E-2,-7.0976056E-2],"split_indices":[1,2,1,0,0,2,0,0,0],"split_type":[0,0,0,0,0,0,0,0,0],"sum_hessian":[4.735233E1,1.9167488E1,2.818484E1,1.1252513E0,1.8042238E1,1.1618563E1,1.6566277E1,1.0459779E1,1.1587844E0],"tree_param":{"num_deleted":"0","num_feature":"3","num_nodes":"9","size_leaf_vector":"1"}},{"base_weights":[5.0545905E-2,1.7232245E-1,-1.6449034E-1,7.6178215E-2,3.039336E-1,-6.8492085E-2,-2.0342872E-2,-5.5364378E-2,2.0301268E-2,6.1710116E-2,1.8678453E-2,2.7284E-2,-1.9066105E-2],"categories":[],"categories_nodes":[],"categories_segments":[],"categories_sizes":[],"default_left":[0,0,0,0,0,0,0,0,0,0,0,0,0],"id":28,"left_children":[1,3,5,7,9,-1,11,-1,-1,-1,-1,-1,-1],"loss_changes":[1.1896397E0,3.412928E-1,1.2272993E0,1.5485235E0,3.1851828E-1,0E0,7.504761E-1,0E0,0E0,0E0,0E0,0E0,0E0],"parents":[2147483647,0,0,1,1,2,2,3,3,4,4,6,6],"right_children":[2,4,6,8,10,-1,12,-1,-1,-1,-1,-1,-1],"split_conditions":[5.1092815E-1,5.071685E-1,5.1187277E-1,5.0220007E-1,5.021316E-1,-6.8492085E-2,5.1371187E-1,-5.5364378E-2,2.0301268E-2,6.1710116E-2,1.8678453E-2,2.7284E-2,-1.9066105E-2],"split_indices":[2,0,2,2,2,0,2,0,0,0,0,0,0],"split_type":[0,0,0,0,0,0,0,0,0,0,0,0,0],"sum_hessian":[4.3347282E1,2.7801647E1,1.5545633E1,1.6977846E1,1.0823801E1,2.55815E0,1.2987483E1,2.2818372E0,1.469601E1,1.7848394E0,9.038961E0,4.5511928E0,8.436291E0],"tree_param":{"num_deleted":"0","num_feature":"3","num_nodes":"13","size_leaf_vector":"1"}},{"base_weights":[9.43845E-3,-9.0754396E-1,7.5918144E-1,-2.3011476E-1,-1.0064806E-1,2.8844327E-1,1.0641632E-1,-6.942063E-2,5.4604203E-2,5.297504E-2,-7.366168E-3],"categories":[],"categories_nodes":[],"categories_segments":[],"categories_sizes":[],"default_left":[0,0,0,0,0,0,0,0,0,0,0],"id":29,"left_children":[1,3,5,7,-1,9,-1,-1,-1,-1,-1],"loss_changes":[3.1636017E1,1.1560307E0,3.326682E0,1.7964226E0,0E0,1.0283747E0,0E0,0E0,0E0,0E0,0E0],"parents":[2147483647,0,0,1,1,2,2,3,3,5,5],"right_children":[2,4,6,8,-1,10,-1,-1,-1,-1,-1],"split_conditions":[3.3656538E-1,4.912899E-1,8.876896E-1,6.423966E-2,-1.0064806E-1,7.671635E-1,1.0641632E-1,-6.942063E-2,5.4604203E-2,5.297504E-2,-7.366168E-3],"split_indices":[1,0,1,1,0,1,0,0,0,0,0],"split_type":[0,0,0,0,0,0,0,0,0,0,0],"sum_hessian":[4.401378E1,1.9704039E1,2.430974E1,2.9348307E0,1.6769209E1,1.0322607E1,1.3987133E1,1.9027153E0,1.0321155E0,5.916723E0,4.4058847E0],"tree_param":{"num_deleted":"0","num_feature":"3","num_nodes":"11","size_leaf_vector":"1"}},{"base_weights":[-3.2144744E-2,-5.7084E-1,1.0452334E-1,-9.811501E-2,-1.00689486E-1,-3.4310576E-2,4.114283E-2],"categories":[],"categories_nodes":[],"categories_segments":[],"categories_sizes":[],"default_left":[0,0,0,0,0,0,0],"id":30,"left_children":[1,3,-1,-1,5,-1,-1],"loss_changes":[2.5352083E1,5.511464E0,0E0,0E0,1.9620541E0,0E0,0E0],"parents":[2147483647,0,0,1,1,4,4],"right_children":[2,4,-1,-1,6,-1,-1],"split_conditions":[8.876896E-1,1.0022105E-1,1.0452334E-1,-9.811501E-2,5.1164013E-1,-3.4310576E-2,4.114283E-2],"split_indices":[1,1,0,0,0,0,0],"split_type":[0,0,0,0,0,0,0],"sum_hessian":[4.1653927E1,2.8082617E1,1.3571311E1,1.4415247E1,1.366737E1,9.50032E0,4.1670494E0],"tree_param":{"num_deleted":"0","num_feature":"3","num_nodes":"7","size_leaf_vector":"1"}},{"base_weights":[2.2425028E-2,-9.1681063E-1,5.841623E-1,-2.8888823E-3,-9.751799E-2,9.4762266E-2,1.03210144E-1,4.630751E-2,-6.267482E-3],"categories":[],"categories_nodes":[],"categories_segments":[],"categories_sizes":[],"default_left":[0,0,0,0,0,0,0,0,0],"id":31,"left_children":[1,3,5,-1,-1,7,-1,-1,-1],"loss_changes":[2.2253824E1,7.904291E-1,5.68289E0,0E0,0E0,8.235785E-1,0E0,0E0,0E0],"parents":[2147483647,0,0,1,1,2,2,5,5],"right_children":[2,4,6,-1,-1,8,-1,-1,-1],"split_conditions":[2.0670785E-1,4.996543E-1,8.641641E-1,-2.8888823E-3,-9.751799E-2,5.0436187E-1,1.03210144E-1,4.630751E-2,-6.267482E-3],"split_indices":[1,2,1,0,0,2,0,0,0],"split_type":[0,0,0,0,0,0,0,0,0],"sum_hessian":[4.0163967E1,1.4794752E1,2.5369213E1,1.0047828E0,1.3789969E1,1.2702514E1,1.2666699E1,3.2224615E0,9.480052E0],"tree_param":{"num_deleted":"0","num_feature":"3","num_nodes":"9","size_leaf_vector":"1"}},{"base_weights":[-4.388877E-3,-7.837487E-1,6.524315E-1,-9.565469E-2,-3.3658215E-1,1.6295427E-1,1.0088284E-1,-1.0003551E-2,-7.4666664E-2,3.8065135E-2,-3.481951E-2],"categories":[],"categories_nodes":[],"categories_segments":[],"categories_sizes":[],"default_left":[0,0,0,0,0,0,0,0,0,0,0],"id":32,"left_children":[1,3,5,-1,7,9,-1,-1,-1,-1,-1],"loss_changes":[2.0032497E1,1.0607643E0,3.5408812E0,0E0,5.588E-1,1.2610779E0,0E0,0E0,0E0,0E0,0E0],"parents":[2147483647,0,0,1,1,2,2,4,4,5,5],"right_children":[2,4,6,-1,8,10,-1,-1,-1,-1,-1],"split_conditions":[4.5323727E-1,1.0022105E-1,8.876896E-1,-9.565469E-2,3.7743306E-1,5.1092815E-1,1.0088284E-1,-1.0003551E-2,-7.4666664E-2,3.8065135E-2,-3.481951E-2],"split_indices":[1,1,1,0,1,2,0,0,0,0,0],"split_type":[0,0,0,0,0,0,0,0,0,0,0],"sum_hessian":[3.7134747E1,1.6894766E1,2.0239979E1,1.1364186E1,5.53058E0,9.141806E0,1.1098173E1,4.2963057E0,1.2342744E0,6.590313E0,2.551493E0],"tree_param":{"num_deleted":"0","num_feature":"3","num_nodes":"11","size_leaf_vector":"1"}},{"base_weights":[1.2721314E-2,-8.887534E-1,5.317622E-1,-9.51223E-2,-2.1967037E-2,3.544675E-2,9.4775057E-1,4.7314823E-2,-1.763548E-2,3.3860303E-2,9.94699E-2],"categories":[],"categories_nodes":[],"categories_segments":[],"categories_sizes":[],"default_left":[0,0,0,0,0,0,0,0,0,0,0],"id":33,"left_children":[1,3,5,-1,-1,7,9,-1,-1,-1,-1],"loss_changes":[1.7335606E1,3.5709858E-1,4.817582E0,0E0,0E0,1.1729962E0,2.764988E-2,0E0,0E0,0E0,0E0],"parents":[2147483647,0,0,1,1,2,2,5,5,6,6],"right_children":[2,4,6,-1,-1,8,10,-1,-1,-1,-1],"split_conditions":[2.0670785E-1,1.0022105E-1,8.4894025E-1,-9.51223E-2,-2.1967037E-2,4.9406704E-1,8.876896E-1,4.7314823E-2,-1.763548E-2,3.3860303E-2,9.94699E-2],"split_indices":[1,1,1,0,0,0,1,0,0,0,0],"split_type":[0,0,0,0,0,0,0,0,0,0,0],"sum_hessian":[3.5039577E1,1.2542813E1,2.2496765E1,1.108607E1,1.4567431E0,1.0752808E1,1.17439575E1,3.104088E0,7.64872E0,1.4280107E0,1.0315948E1],"tree_param":{"num_deleted":"0","num_feature":"3","num_nodes":"11","size_leaf_vector":"1"}},{"base_weights":[7.231802E-2,-2.400497E-2,3.0588138E-1,7.248721E-2,-6.980874E-2,5.5814886E-1,3.780068E-2,-1.0065707E-2,2.8709918E-2,6.817021E-2,2.1524606E-2,-2.2927335E-2,4.730892E-2],"categories":[],"categories_nodes":[],"categories_segments":[],"categories_sizes":[],"default_left":[0,0,0,0,0,0,0,0,0,0,0,0,0],"id":34,"left_children":[1,3,5,7,-1,9,11,-1,-1,-1,-1,-1,-1],"loss_changes":[7.465242E-1,1.6239932E0,6.326197E-1,8.488684E-1,0E0,6.117773E-2,7.779697E-1,0E0,0E0,0E0,0E0,0E0,0E0],"parents":[2147483647,0,0,1,1,2,2,3,3,5,5,6,6],"right_children":[2,4,6,8,-1,10,12,-1,-1,-1,-1,-1,-1],"split_conditions":[5.1187277E-1,5.1092815E-1,5.1402134E-1,5.055874E-1,-6.980874E-2,5.01147E-1,5.1164013E-1,-1.0065707E-2,2.8709918E-2,6.817021E-2,2.1524606E-2,-2.2927335E-2,4.730892E-2],"split_indices":[2,2,2,0,0,0,0,0,0,0,0,0,0],"split_type":[0,0,0,0,0,0,0,0,0,0,0,0,0],"sum_hessian":[3.185613E1,2.3189754E1,8.666376E0,2.1066618E1,2.1231365E0,3.907422E0,4.758954E0,1.1953652E1,9.112967E0,2.146112E0,1.7613102E0,3.2426746E0,1.5162793E0],"tree_param":{"num_deleted":"0","num_feature":"3","num_nodes":"13","size_leaf_vector":"1"}},{"base_weights":[-4.8394594E-2,-8.051297E-1,6.205377E-1,-9.420829E-2,-4.3833616E-1,9.7051404E-2,9.84288E-2,-1.1921021E-2,-6.445915E-2,-4.6967078E-2,2.4643889E-2],"categories":[],"categories_nodes":[],"categories_segments":[],"categories_sizes":[],"default_left":[0,0,0,0,0,0,0,0,0,0,0],"id":35,"left_children":[1,3,5,-1,7,9,-1,-1,-1,-1,-1],"loss_changes":[1.8067831E1,4.2692757E-1,3.5198197E0,0E0,3.454454E-1,8.686734E-1,0E0,0E0,0E0,0E0,0E0],"parents":[2147483647,0,0,1,1,2,2,4,4,5,5],"right_children":[2,4,6,-1,8,10,-1,-1,-1,-1,-1],"split_conditions":[5.5212027E-1,1.0022105E-1,8.876896E-1,-9.420829E-2,2.465891E-1,4.9052733E-1,9.84288E-2,-1.1921021E-2,-6.445915E-2,-4.6967078E-2,2.4643889E-2],"split_indices":[1,1,1,0,1,0,0,0,0,0,0],"split_type":[0,0,0,0,0,0,0,0,0,0,0],"sum_hessian":[3.370577E1,1.5719431E1,1.798634E1,1.03037815E1,5.4156494E0,7.8934283E0,1.0092911E1,2.7455723E0,2.670077E0,1.1993916E0,6.6940365E0],"tree_param":{"num_deleted":"0","num_feature":"3","num_nodes":"11","size_leaf_vector":"1"}},{"base_weights":[-9.988934E-3,-7.1062255E-1,6.71728E-1,-9.531168E-2,-1.1216197E-1,2.1288948E-1,9.678739E-2,2.7286565E-2,-4.3987695E-2,6.893992E-2,-4.7728787E-3],"categories":[],"categories_nodes":[],"categories_segments":[],"categories_sizes":[],"default_left":[0,0,0,0,0,0,0,0,0,0,0],"id":36,"left_children":[1,3,5,-1,7,9,-1,-1,-1,-1,-1],"loss_changes":[1.6091885E1,2.3033E0,2.1153069E0,0E0,8.673093E-1,1.0242956E0,0E0,0E0,0E0,0E0,0E0],"parents":[2147483647,0,0,1,1,2,2,4,4,5,5],"right_children":[2,4,6,-1,8,10,-1,-1,-1,-1,-1],"split_conditions":[6.249842E-1,2.2554076E-1,8.876896E-1,-9.531168E-2,4.074914E-1,6.947905E-1,9.678739E-2,2.7286565E-2,-4.3987695E-2,6.893992E-2,-4.7728787E-3],"split_indices":[1,1,1,0,1,1,0,0,0,0,0],"split_type":[0,0,0,0,0,0,0,0,0,0,0],"sum_hessian":[3.1691448E1,1.5607974E1,1.6083473E1,1.0685594E1,4.922381E0,6.9830446E0,9.100429E0,2.3402379E0,2.582143E0,1.8872273E0,5.095817E0],"tree_param":{"num_deleted":"0","num_feature":"3","num_nodes":"11","size_leaf_vector":"1"}},{"base_weights":[-4.093581E-2,-9.366494E-2,4.310168E-1,7.8049816E-2,9.408931E-2,3.5542157E-2,-1.2776934E-2],"categories":[],"categories_nodes":[],"categories_segments":[],"categories_sizes":[],"default_left":[0,0,0,0,0,0,0],"id":37,"left_children":[1,-1,3,5,-1,-1,-1],"loss_changes":[1.3388137E1,0E0,3.6701038E0,8.0938554E-1,0E0,0E0,0E0],"parents":[2147483647,0,0,2,2,3,3],"right_children":[2,-1,4,6,-1,-1,-1],"split_conditions":[2.0670785E-1,-9.366494E-2,8.876896E-1,5.0575477E-1,9.408931E-2,3.5542157E-2,-1.2776934E-2],"split_indices":[1,0,1,2,0,0,0],"split_type":[0,0,0,0,0,0,0],"sum_hessian":[2.9715328E1,9.914356E0,1.9800972E1,1.2382286E1,7.4186864E0,4.964723E0,7.4175625E0],"tree_param":{"num_deleted":"0","num_feature":"3","num_nodes":"7","size_leaf_vector":"1"}},{"base_weights":[3.522833E-2,-8.223444E-1,4.5592067E-1,-9.057946E-2,-1.4268561E-2,1.126901E-1,9.324387E-2,4.8664298E-2,-1.730654E-2],"categories":[],"categories_nodes":[],"categories_segments":[],"categories_sizes":[],"default_left":[0,0,0,0,0,0,0,0,0],"id":38,"left_children":[1,3,5,-1,-1,7,-1,-1,-1],"loss_changes":[1.0773712E1,4.2901945E-1,3.1628761E0,0E0,0E0,1.4469095E0,0E0,0E0,0E0],"parents":[2147483647,0,0,1,1,2,2,5,5],"right_children":[2,4,6,-1,-1,8,-1,-1,-1],"split_conditions":[2.0670785E-1,1.0022105E-1,8.876896E-1,-9.057946E-2,-1.4268561E-2,5.0184363E-1,9.324387E-2,4.8664298E-2,-1.730654E-2],"split_indices":[1,1,1,0,0,0,0,0,0],"split_type":[0,0,0,0,0,0,0,0,0],"sum_hessian":[2.7823532E1,8.84284E0,1.898069E1,7.579492E0,1.2633485E0,1.17522E1,7.228491E0,4.786006E0,6.966194E0],"tree_param":{"num_deleted":"0","num_feature":"3","num_nodes":"9","size_leaf_vector":"1"}},{"base_weights":[1.0206287E-1,-7.877329E-1,5.0834185E-1,-8.822855E-2,-1.1994862E-2,1.639001E-1,9.2687026E-2,-9.126683E-4,7.579586E-2],"categories":[],"categories_nodes":[],"categories_segments":[],"categories_sizes":[],"default_left":[0,0,0,0,0,0,0,0,0],"id":39,"left_children":[1,3,5,-1,-1,7,-1,-1,-1],"loss_changes":[9.723454E0,4.2937756E-1,2.488069E0,0E0,0E0,1.1643583E0,0E0,0E0,0E0],"parents":[2147483647,0,0,1,1,2,2,5,5],"right_children":[2,4,6,-1,-1,8,-1,-1,-1],"split_conditions":[2.0670785E-1,1.0022105E-1,8.641641E-1,-8.822855E-2,-1.1994862E-2,5.173681E-1,9.2687026E-2,-9.126683E-4,7.579586E-2],"split_indices":[1,1,1,0,0,0,0,0,0],"split_type":[0,0,0,0,0,0,0,0,0],"sum_hessian":[2.4789434E1,7.476399E0,1.7313036E1,6.2677283E0,1.208671E0,1.0260462E1,7.0525746E0,8.70861E0,1.5518521E0],"tree_param":{"num_deleted":"0","num_feature":"3","num_nodes":"9","size_leaf_vector":"1"}},{"base_weights":[1.6519126E-2,-9.0483814E-2,4.298605E-1,1.368099E-1,9.0321094E-2,5.828005E-2,-1.7446065E-2],"categories":[],"categories_nodes":[],"categories_segments":[],"categories_sizes":[],"default_left":[0,0,0,0,0,0,0],"id":40,"left_children":[1,-1,3,5,-1,-1,-1],"loss_changes":[1.0516757E1,0E0,2.5170007E0,1.8974401E0,0E0,0E0,0E0],"parents":[2147483647,0,0,2,2,3,3],"right_children":[2,-1,4,6,-1,-1,-1],"split_conditions":[2.0670785E-1,-9.0483814E-2,8.876896E-1,5.0184363E-1,9.0321094E-2,5.828005E-2,-1.7446065E-2],"split_indices":[1,0,1,0,0,0,0],"split_type":[0,0,0,0,0,0,0],"sum_hessian":[2.5593672E1,7.557831E0,1.8035841E1,1.1935571E1,6.1002703E0,4.5475216E0,7.388049E0],"tree_param":{"num_deleted":"0","num_feature":"3","num_nodes":"7","size_leaf_vector":"1"}},{"base_weights":[-9.0934984E-2,-6.5286726E-1,5.4168534E-1,-8.9512974E-2,-2.628421E-1,1.4464585E-1,8.831444E-2,1.8763268E-2,-4.529585E-2,7.019189E-2,-1.0986074E-2],"categories":[],"categories_nodes":[],"categories_segments":[],"categories_sizes":[],"default_left":[0,0,0,0,0,0,0,0,0,0,0],"id":41,"left_children":[1,3,5,-1,7,9,-1,-1,-1,-1,-1],"loss_changes":[9.228073E0,1.0567627E0,1.5384295E0,0E0,6.5493697E-1,1.0526643E0,0E0,0E0,0E0,0E0,0E0],"parents":[2147483647,0,0,1,1,2,2,4,4,5,5],"right_children":[2,4,6,-1,8,10,-1,-1,-1,-1,-1],"split_conditions":[6.4966446E-1,2.0670785E-1,8.876896E-1,-8.9512974E-2,2.610798E-1,5.049672E-1,8.831444E-2,1.8763268E-2,-4.529585E-2,7.019189E-2,-1.0986074E-2],"split_indices":[1,1,1,0,1,2,0,0,0,0,0],"split_type":[0,0,0,0,0,0,0,0,0,0,0],"sum_hessian":[2.3963938E1,1.2674056E1,1.1289881E1,7.01911E0,5.654946E0,5.8783283E0,5.411553E0,1.6821676E0,3.9727783E0,1.2918049E0,4.586523E0],"tree_param":{"num_deleted":"0","num_feature":"3","num_nodes":"11","size_leaf_vector":"1"}},{"base_weights":[-1.18779585E-1,-4.875062E-2,-5.2560896E-2,1.5727141E-1,-1.5421826E-1,-9.5812837E-4,6.053954E-2,-5.355988E-2,-2.7316033E-3],"categories":[],"categories_nodes":[],"categories_segments":[],"categories_sizes":[],"default_left":[0,0,0,0,0,0,0,0,0],"id":42,"left_children":[1,-1,3,5,7,-1,-1,-1,-1],"loss_changes":[5.551743E-1,0E0,4.7831413E-1,5.6225127E-1,7.038044E-1,0E0,0E0,0E0,0E0],"parents":[2147483647,0,0,2,2,3,3,4,4],"right_children":[2,-1,4,6,8,-1,-1,-1,-1],"split_conditions":[4.9052733E-1,-4.875062E-2,5.016881E-1,5.0002956E-1,5.054596E-1,-9.5812837E-4,6.053954E-2,-5.355988E-2,-2.7316033E-3],"split_indices":[0,0,0,0,0,0,0,0,0],"split_type":[0,0,0,0,0,0,0,0,0],"sum_hessian":[2.2787027E1,2.5006354E0,2.0286392E1,6.442098E0,1.3844294E1,5.4073615E0,1.0347365E0,2.6524115E0,1.1191882E1],"tree_param":{"num_deleted":"0","num_feature":"3","num_nodes":"9","size_leaf_vector":"1"}},{"base_weights":[2.8798965E-4,-8.560486E-2,2.7796394E-1,1.3041243E-2,8.689864E-2,3.6432248E-2,-1.3381163E-2],"categories":[],"categories_nodes":[],"categories_segments":[],"categories_sizes":[],"default_left":[0,0,0,0,0,0,0],"id":43,"left_children":[1,-1,3,5,-1,-1,-1],"loss_changes":[6.11506E0,0E0,3.0292041E0,7.928307E-1,0E0,0E0,0E0],"parents":[2147483647,0,0,2,2,3,3],"right_children":[2,-1,4,6,-1,-1,-1],"split_conditions":[1.0022105E-1,-8.560486E-2,8.876896E-1,4.9406704E-1,8.689864E-2,3.6432248E-2,-1.3381163E-2],"split_indices":[1,0,1,0,0,0,0],"split_type":[0,0,0,0,0,0,0],"sum_hessian":[2.3716158E1,5.2971497E0,1.8419008E1,1.3423887E1,4.995121E0,3.5208724E0,9.903014E0],"tree_param":{"num_deleted":"0","num_feature":"3","num_nodes":"7","size_leaf_vector":"1"}},{"base_weights":[3.240167E-2,1.2811548E-1,-2.4237907E-1,3.771548E-2,6.115821E-2,-5.464985E-1,1.9628082E-1,-4.00341E-2,1.0104211E-2,-1.9582475E-2,-6.532683E-2,2.4391046E-2,5.4108636E-3],"categories":[],"categories_nodes":[],"categories_segments":[],"categories_sizes":[],"default_left":[0,0,0,0,0,0,0,0,0,0,0,0,0],"id":44,"left_children":[1,3,5,7,-1,9,11,-1,-1,-1,-1,-1,-1],"loss_changes":[5.987144E-1,7.0515585E-1,8.9726245E-1,4.5941955E-1,0E0,1.2907743E-2,8.202866E-3,0E0,0E0,0E0,0E0,0E0,0E0],"parents":[2147483647,0,0,1,1,2,2,3,3,5,5,6,6],"right_children":[2,4,6,8,-1,10,12,-1,-1,-1,-1,-1,-1],"split_conditions":[5.128527E-1,5.1053494E-1,5.178064E-1,5.0220007E-1,6.115821E-2,5.078671E-1,5.244176E-1,-4.00341E-2,1.0104211E-2,-1.9582475E-2,-6.532683E-2,2.4391046E-2,5.4108636E-3],"split_indices":[0,0,0,2,0,2,0,0,0,0,0,0,0],"split_type":[0,0,0,0,0,0,0,0,0,0,0,0,0],"sum_hessian":[2.058385E1,1.5662068E1,4.921782E0,1.4103049E1,1.5590189E0,2.7614524E0,2.1603293E0,1.1091003E0,1.2993949E1,1.3060285E0,1.455424E0,1.0821841E0,1.0781454E0],"tree_param":{"num_deleted":"0","num_feature":"3","num_nodes":"13","size_leaf_vector":"1"}},{"base_weights":[6.985943E-2,-6.45786E-2,2.3517604E-1,1.5967873E-1,-5.688392E-1,4.5305318E-1,1.4643681E-2,2.5182306E-3,6.7241594E-2,6.6076266E-3,-7.973134E-2,1.0307012E-2,8.036609E-2,-3.2383136E-2,4.050984E-2],"categories":[],"categories_nodes":[],"categories_segments":[],"categories_sizes":[],"default_left":[0,0,0,0,0,0,0,0,0,0,0,0,0,0,0],"id":45,"left_children":[1,3,5,7,9,11,13,-1,-1,-1,-1,-1,-1,-1,-1],"loss_changes":[5.416435E-1,1.6568772E0,5.141795E-1,6.979461E-1,7.02868E-1,5.821192E-1,9.7967124E-1,0E0,0E0,0E0,0E0,0E0,0E0,0E0,0E0],"parents":[2147483647,0,0,1,1,2,2,3,3,4,4,5,5,6,6],"right_children":[2,4,6,8,10,12,14,-1,-1,-1,-1,-1,-1,-1,-1],"split_conditions":[5.0639474E-1,5.0184363E-1,5.128527E-1,5.0002956E-1,5.0600916E-1,5.1053494E-1,5.1838857E-1,2.5182306E-3,6.7241594E-2,6.6076266E-3,-7.973134E-2,1.0307012E-2,8.036609E-2,-3.2383136E-2,4.050984E-2],"split_indices":[0,0,0,0,2,0,0,0,0,0,0,0,0,0,0],"split_type":[0,0,0,0,0,0,0,0,0,0,0,0,0,0,0],"sum_hessian":[2.2687735E1,1.28485E1,9.839234E0,9.366378E0,3.4821222E0,4.4190397E0,5.420195E0,8.251131E0,1.1152464E0,1.1095486E0,2.3725736E0,2.8590543E0,1.5599852E0,2.9947524E0,2.425443E0],"tree_param":{"num_deleted":"0","num_feature":"3","num_nodes":"15","size_leaf_vector":"1"}},{"base_weights":[8.862241E-3,-5.4165147E-2,3.3663428E-1,5.365033E-2,-6.0049225E-2,-2.1676272E-2,6.519231E-2,3.264171E-2,-8.9039495E-3],"categories":[],"categories_nodes":[],"categories_segments":[],"categories_sizes":[],"default_left":[0,0,0,0,0,0,0,0,0],"id":46,"left_children":[1,3,5,7,-1,-1,-1,-1,-1],"loss_changes":[5.010028E-1,1.2374446E0,8.230914E-1,7.299131E-1,0E0,0E0,0E0,0E0,0E0],"parents":[2147483647,0,0,1,1,2,2,3,3],"right_children":[2,4,6,8,-1,-1,-1,-1,-1],"split_conditions":[5.178064E-1,5.128527E-1,5.0728375E-1,5.0575477E-1,-6.0049225E-2,-2.1676272E-2,6.519231E-2,3.264171E-2,-8.9039495E-3],"split_indices":[0,0,2,2,0,0,0,0,0],"split_type":[0,0,0,0,0,0,0,0,0],"sum_hessian":[2.2368893E1,1.9461401E1,2.9074914E0,1.7006947E1,2.4544551E0,1.1686914E0,1.7388E0,5.3988576E0,1.16080885E1],"tree_param":{"num_deleted":"0","num_feature":"3","num_nodes":"9","size_leaf_vector":"1"}},{"base_weights":[4.0668186E-2,-1.1399797E-1,3.5282362E-1,5.2260052E-2,-3.6932585E-1,7.277635E-2,1.05580896E-1,-1.4392796E-2,4.534258E-2,-1.8421704E-3,-4.9435597E-2,-2.8843408E-2,3.7939776E-2],"categories":[],"categories_nodes":[],"categories_segments":[],"categories_sizes":[],"default_left":[0,0,0,0,0,0,0,0,0,0,0,0,0],"id":47,"left_children":[1,3,5,7,9,-1,11,-1,-1,-1,-1,-1,-1],"loss_changes":[1.1398604E0,6.979091E-1,6.453414E-1,8.9619386E-1,2.7292264E-1,0E0,7.421238E-1,0E0,0E0,0E0,0E0,0E0,0E0],"parents":[2147483647,0,0,1,1,2,2,3,3,4,4,6,6],"right_children":[2,4,6,8,10,-1,12,-1,-1,-1,-1,-1,-1],"split_conditions":[5.1017886E-1,5.0184363E-1,5.128527E-1,4.9834657E-1,5.075796E-1,7.277635E-2,5.07507E-1,-1.4392796E-2,4.534258E-2,-1.8421704E-3,-4.9435597E-2,-2.8843408E-2,3.7939776E-2],"split_indices":[0,0,0,0,2,0,2,0,0,0,0,0,0],"split_type":[0,0,0,0,0,0,0,0,0,0,0,0,0],"sum_hessian":[2.1776344E1,1.4985943E1,6.790402E0,9.557713E0,5.428231E0,1.926053E0,4.864349E0,6.849316E0,2.7083964E0,1.7274319E0,3.7007985E0,1.9725378E0,2.8918114E0],"tree_param":{"num_deleted":"0","num_feature":"3","num_nodes":"13","size_leaf_vector":"1"}},{"base_weights":[7.460127E-2,-8.8752694E-2,4.77782E-1,2.0039736E-1,8.1953645E-1,-5.30879E-3,4.818283E-2,9.106518E-2,2.422495E-2],"categories":[],"categories_nodes":[],"categories_segments":[],"categories_sizes":[],"default_left":[0,0,0,0,0,0,0,0,0],"id":48,"left_children":[1,-1,3,5,7,-1,-1,-1,-1],"loss_changes":[9.489453E0,0E0,1.4585714E0,7.941016E-1,1.6578007E-1,0E0,0E0,0E0,0E0],"parents":[2147483647,0,0,2,2,3,3,4,4],"right_children":[2,-1,4,6,8,-1,-1,-1,-1],"split_conditions":[2.2554076E-1,-8.8752694E-2,8.399762E-1,5.084296E-1,5.1430935E-1,-5.30879E-3,4.818283E-2,9.106518E-2,2.422495E-2],"split_indices":[1,0,1,2,2,0,0,0,0],"split_type":[0,0,0,0,0,0,0,0,0],"sum_hessian":[2.2369781E1,6.2511263E0,1.6118656E1,9.772882E0,6.3457727E0,5.5686E0,4.2042823E0,4.98198E0,1.3637931E0],"tree_param":{"num_deleted":"0","num_feature":"3","num_nodes":"9","size_leaf_vector":"1"}},{"base_weights":[-8.149765E-2,-3.686842E-1,8.518509E-2,-8.615639E-2,-8.0537364E-2,5.2213627E-3,-3.61239E-2],"categories":[],"categories_nodes":[],"categories_segments":[],"categories_sizes":[],"default_left":[0,0,0,0,0,0,0],"id":49,"left_children":[1,3,-1,-1,5,-1,-1],"loss_changes":[6.3406467E0,2.4715414E0,0E0,0E0,4.8069003E-1,0E0,0E0],"parents":[2147483647,0,0,1,1,4,4],"right_children":[2,4,-1,-1,6,-1,-1],"split_conditions":[8.876896E-1,2.0670785E-1,8.518509E-2,-8.615639E-2,7.671635E-1,5.2213627E-3,-3.61239E-2],"split_indices":[1,1,0,0,1,0,0],"split_type":[0,0,0,0,0,0,0],"sum_hessian":[2.1483461E1,1.6891134E1,4.5923276E0,5.4975204E0,1.1393613E1,8.287996E0,3.1056163E0],"tree_param":{"num_deleted":"0","num_feature":"3","num_nodes":"7","size_leaf_vector":"1"}}]},"name":"gbtree"},"learner_model_param":{"base_score":"[3E-1]","boost_from_average":"1","num_class":"0","num_feature":"3","num_target":"1"},"objective":{"name":"binary:logistic","reg_loss_param":{"scale_pos_weight":"1"}}},"version":[3,2,0]}